digraph Tree {
node [shape=box] ;
0 [label="X[1] <= 0.5\ngini = 0.478\nsamples = 474\nvalue = [287, 187]"] ;
1 [label="X[0] <= 2.5\ngini = 0.366\nsamples = 174\nvalue = [42, 132]"] ;
0 -> 1 [labeldistance=2.5, labelangle=45, headlabel="True"] ;
2 [label="X[5] <= 22.0\ngini = 0.108\nsamples = 105\nvalue = [6, 99]"] ;
1 -> 2 ;
3 [label="X[2] <= 29.5\ngini = 0.219\nsamples = 24\nvalue = [3, 21]"] ;
2 -> 3 ;
4 [label="gini = 0.32\nsamples = 10\nvalue = [2, 8]"] ;
3 -> 4 ;
5 [label="gini = 0.133\nsamples = 14\nvalue = [1, 13]"] ;
3 -> 5 ;
6 [label="X[5] <= 149.035\ngini = 0.071\nsamples = 81\nvalue = [3, 78]"] ;
2 -> 6 ;
7 [label="X[5] <= 26.125\ngini = 0.029\nsamples = 68\nvalue = [1, 67]"] ;
6 -> 7 ;
8 [label="gini = 0.124\nsamples = 15\nvalue = [1, 14]"] ;
7 -> 8 ;
9 [label="gini = 0.0\nsamples = 53\nvalue = [0, 53]"] ;
7 -> 9 ;
10 [label="gini = 0.26\nsamples = 13\nvalue = [2, 11]"] ;
6 -> 10 ;
11 [label="X[5] <= 20.8\ngini = 0.499\nsamples = 69\nvalue = [36, 33]"] ;
1 -> 11 ;
12 [label="X[2] <= 24.5\ngini = 0.49\nsamples = 56\nvalue = [24, 32]"] ;
11 -> 12 ;
13 [label="X[5] <= 7.815\ngini = 0.438\nsamples = 34\nvalue = [11, 23]"] ;
12 -> 13 ;
14 [label="gini = 0.165\nsamples = 11\nvalue = [1, 10]"] ;
13 -> 14 ;
15 [label="gini = 0.491\nsamples = 23\nvalue = [10, 13]"] ;
13 -> 15 ;
16 [label="X[5] <= 9.135\ngini = 0.483\nsamples = 22\nvalue = [13, 9]"] ;
12 -> 16 ;
17 [label="gini = 0.42\nsamples = 10\nvalue = [7, 3]"] ;
16 -> 17 ;
18 [label="gini = 0.5\nsamples = 12\nvalue = [6, 6]"] ;
16 -> 18 ;
19 [label="gini = 0.142\nsamples = 13\nvalue = [12, 1]"] ;
11 -> 19 ;
20 [label="X[2] <= 3.5\ngini = 0.299\nsamples = 300\nvalue = [245, 55]"] ;
0 -> 20 [labeldistance=2.5, labelangle=-45, headlabel="False"] ;
21 [label="gini = 0.165\nsamples = 11\nvalue = [1, 10]"] ;
20 -> 21 ;
22 [label="X[0] <= 1.5\ngini = 0.263\nsamples = 289\nvalue = [244, 45]"] ;
20 -> 22 ;
23 [label="X[2] <= 51.5\ngini = 0.455\nsamples = 60\nvalue = [39, 21]"] ;
22 -> 23 ;
24 [label="X[5] <= 52.277\ngini = 0.475\nsamples = 49\nvalue = [30, 19]"] ;
23 -> 24 ;
25 [label="gini = 0.423\nsamples = 23\nvalue = [16, 7]"] ;
24 -> 25 ;
26 [label="gini = 0.497\nsamples = 26\nvalue = [14, 12]"] ;
24 -> 26 ;
27 [label="gini = 0.298\nsamples = 11\nvalue = [9, 2]"] ;
23 -> 27 ;
28 [label="X[2] <= 32.5\ngini = 0.188\nsamples = 229\nvalue = [205, 24]"] ;
22 -> 28 ;
29 [label="X[2] <= 28.75\ngini = 0.228\nsamples = 168\nvalue = [146, 22]"] ;
28 -> 29 ;
30 [label="gini = 0.185\nsamples = 136\nvalue = [122, 14]"] ;
29 -> 30 ;
31 [label="gini = 0.375\nsamples = 32\nvalue = [24, 8]"] ;
29 -> 31 ;
32 [label="X[5] <= 7.988\ngini = 0.063\nsamples = 61\nvalue = [59, 2]"] ;
28 -> 32 ;
33 [label="gini = 0.219\nsamples = 16\nvalue = [14, 2]"] ;
32 -> 33 ;
34 [label="gini = 0.0\nsamples = 45\nvalue = [45, 0]"] ;
32 -> 34 ;
}
