digraph Tree {
node [shape=box] ;
0 [label="X[1] <= 0.5\nentropy = 0.974\nsamples = 712\nvalue = [424, 288]"] ;
1 [label="X[0] <= 2.5\nentropy = 0.807\nsamples = 259\nvalue = [64, 195]"] ;
0 -> 1 [labeldistance=2.5, labelangle=45, headlabel="True"] ;
2 [label="X[5] <= 28.856\nentropy = 0.317\nsamples = 157\nvalue = [9, 148]"] ;
1 -> 2 ;
3 [label="X[5] <= 28.231\nentropy = 0.474\nsamples = 69\nvalue = [7, 62]"] ;
2 -> 3 ;
4 [label="X[2] <= 23.5\nentropy = 0.431\nsamples = 68\nvalue = [6, 62]"] ;
3 -> 4 ;
5 [label="entropy = 0.0\nsamples = 15\nvalue = [0, 15]"] ;
4 -> 5 ;
6 [label="X[2] <= 27.5\nentropy = 0.51\nsamples = 53\nvalue = [6, 47]"] ;
4 -> 6 ;
7 [label="X[2] <= 25.5\nentropy = 0.845\nsamples = 11\nvalue = [3, 8]"] ;
6 -> 7 ;
8 [label="X[5] <= 13.75\nentropy = 0.592\nsamples = 7\nvalue = [1, 6]"] ;
7 -> 8 ;
9 [label="entropy = 1.0\nsamples = 2\nvalue = [1, 1]"] ;
8 -> 9 ;
10 [label="entropy = 0.0\nsamples = 5\nvalue = [0, 5]"] ;
8 -> 10 ;
11 [label="X[5] <= 17.429\nentropy = 1.0\nsamples = 4\nvalue = [2, 2]"] ;
7 -> 11 ;
12 [label="entropy = 0.0\nsamples = 2\nvalue = [0, 2]"] ;
11 -> 12 ;
13 [label="entropy = 0.0\nsamples = 2\nvalue = [2, 0]"] ;
11 -> 13 ;
14 [label="X[2] <= 37.0\nentropy = 0.371\nsamples = 42\nvalue = [3, 39]"] ;
6 -> 14 ;
15 [label="entropy = 0.0\nsamples = 23\nvalue = [0, 23]"] ;
14 -> 15 ;
16 [label="X[2] <= 39.0\nentropy = 0.629\nsamples = 19\nvalue = [3, 16]"] ;
14 -> 16 ;
17 [label="entropy = 0.0\nsamples = 1\nvalue = [1, 0]"] ;
16 -> 17 ;
18 [label="X[2] <= 56.0\nentropy = 0.503\nsamples = 18\nvalue = [2, 16]"] ;
16 -> 18 ;
19 [label="X[3] <= 0.5\nentropy = 0.337\nsamples = 16\nvalue = [1, 15]"] ;
18 -> 19 ;
20 [label="entropy = 0.0\nsamples = 12\nvalue = [0, 12]"] ;
19 -> 20 ;
21 [label="X[2] <= 44.5\nentropy = 0.811\nsamples = 4\nvalue = [1, 3]"] ;
19 -> 21 ;
22 [label="X[2] <= 43.0\nentropy = 1.0\nsamples = 2\nvalue = [1, 1]"] ;
21 -> 22 ;
23 [label="entropy = 0.0\nsamples = 1\nvalue = [0, 1]"] ;
22 -> 23 ;
24 [label="entropy = 0.0\nsamples = 1\nvalue = [1, 0]"] ;
22 -> 24 ;
25 [label="entropy = 0.0\nsamples = 2\nvalue = [0, 2]"] ;
21 -> 25 ;
26 [label="X[0] <= 1.5\nentropy = 1.0\nsamples = 2\nvalue = [1, 1]"] ;
18 -> 26 ;
27 [label="entropy = 0.0\nsamples = 1\nvalue = [0, 1]"] ;
26 -> 27 ;
28 [label="entropy = 0.0\nsamples = 1\nvalue = [1, 0]"] ;
26 -> 28 ;
29 [label="entropy = 0.0\nsamples = 1\nvalue = [1, 0]"] ;
3 -> 29 ;
30 [label="X[2] <= 2.5\nentropy = 0.156\nsamples = 88\nvalue = [2, 86]"] ;
2 -> 30 ;
31 [label="entropy = 0.0\nsamples = 1\nvalue = [1, 0]"] ;
30 -> 31 ;
32 [label="X[4] <= 1.5\nentropy = 0.091\nsamples = 87\nvalue = [1, 86]"] ;
30 -> 32 ;
33 [label="entropy = 0.0\nsamples = 72\nvalue = [0, 72]"] ;
32 -> 33 ;
34 [label="X[2] <= 24.5\nentropy = 0.353\nsamples = 15\nvalue = [1, 14]"] ;
32 -> 34 ;
35 [label="entropy = 0.0\nsamples = 10\nvalue = [0, 10]"] ;
34 -> 35 ;
36 [label="X[2] <= 28.0\nentropy = 0.722\nsamples = 5\nvalue = [1, 4]"] ;
34 -> 36 ;
37 [label="entropy = 0.0\nsamples = 1\nvalue = [1, 0]"] ;
36 -> 37 ;
38 [label="entropy = 0.0\nsamples = 4\nvalue = [0, 4]"] ;
36 -> 38 ;
39 [label="X[5] <= 20.8\nentropy = 0.996\nsamples = 102\nvalue = [55, 47]"] ;
1 -> 39 ;
40 [label="X[2] <= 16.5\nentropy = 0.991\nsamples = 79\nvalue = [35, 44]"] ;
39 -> 40 ;
41 [label="X[2] <= 14.75\nentropy = 0.722\nsamples = 20\nvalue = [4, 16]"] ;
40 -> 41 ;
42 [label="X[2] <= 7.0\nentropy = 0.837\nsamples = 15\nvalue = [4, 11]"] ;
41 -> 42 ;
43 [label="X[5] <= 10.798\nentropy = 0.469\nsamples = 10\nvalue = [1, 9]"] ;
42 -> 43 ;
44 [label="entropy = 0.0\nsamples = 1\nvalue = [1, 0]"] ;
43 -> 44 ;
45 [label="entropy = 0.0\nsamples = 9\nvalue = [0, 9]"] ;
43 -> 45 ;
46 [label="X[5] <= 12.848\nentropy = 0.971\nsamples = 5\nvalue = [3, 2]"] ;
42 -> 46 ;
47 [label="X[6] <= 1.0\nentropy = 0.918\nsamples = 3\nvalue = [1, 2]"] ;
46 -> 47 ;
48 [label="entropy = 0.0\nsamples = 2\nvalue = [0, 2]"] ;
47 -> 48 ;
49 [label="entropy = 0.0\nsamples = 1\nvalue = [1, 0]"] ;
47 -> 49 ;
50 [label="entropy = 0.0\nsamples = 2\nvalue = [2, 0]"] ;
46 -> 50 ;
51 [label="entropy = 0.0\nsamples = 5\nvalue = [0, 5]"] ;
41 -> 51 ;
52 [label="X[2] <= 36.5\nentropy = 0.998\nsamples = 59\nvalue = [31, 28]"] ;
40 -> 52 ;
53 [label="X[4] <= 1.5\nentropy = 0.999\nsamples = 52\nvalue = [25, 27]"] ;
52 -> 53 ;
54 [label="X[2] <= 32.5\nentropy = 0.997\nsamples = 47\nvalue = [25, 22]"] ;
53 -> 54 ;
55 [label="X[5] <= 7.888\nentropy = 0.987\nsamples = 44\nvalue = [25, 19]"] ;
54 -> 55 ;
56 [label="X[2] <= 28.25\nentropy = 0.954\nsamples = 16\nvalue = [6, 10]"] ;
55 -> 56 ;
57 [label="X[5] <= 7.0\nentropy = 0.863\nsamples = 14\nvalue = [4, 10]"] ;
56 -> 57 ;
58 [label="entropy = 0.0\nsamples = 1\nvalue = [1, 0]"] ;
57 -> 58 ;
59 [label="X[5] <= 7.7\nentropy = 0.779\nsamples = 13\nvalue = [3, 10]"] ;
57 -> 59 ;
60 [label="entropy = 0.0\nsamples = 4\nvalue = [0, 4]"] ;
59 -> 60 ;
61 [label="X[5] <= 7.815\nentropy = 0.918\nsamples = 9\nvalue = [3, 6]"] ;
59 -> 61 ;
62 [label="X[2] <= 21.5\nentropy = 1.0\nsamples = 6\nvalue = [3, 3]"] ;
61 -> 62 ;
63 [label="entropy = 0.0\nsamples = 2\nvalue = [2, 0]"] ;
62 -> 63 ;
64 [label="X[2] <= 23.5\nentropy = 0.811\nsamples = 4\nvalue = [1, 3]"] ;
62 -> 64 ;
65 [label="entropy = 0.0\nsamples = 3\nvalue = [0, 3]"] ;
64 -> 65 ;
66 [label="entropy = 0.0\nsamples = 1\nvalue = [1, 0]"] ;
64 -> 66 ;
67 [label="entropy = 0.0\nsamples = 3\nvalue = [0, 3]"] ;
61 -> 67 ;
68 [label="entropy = 0.0\nsamples = 2\nvalue = [2, 0]"] ;
56 -> 68 ;
69 [label="X[6] <= 1.5\nentropy = 0.906\nsamples = 28\nvalue = [19, 9]"] ;
55 -> 69 ;
70 [label="entropy = 0.0\nsamples = 3\nvalue = [3, 0]"] ;
69 -> 70 ;
71 [label="X[3] <= 0.5\nentropy = 0.943\nsamples = 25\nvalue = [16, 9]"] ;
69 -> 71 ;
72 [label="X[2] <= 19.0\nentropy = 1.0\nsamples = 14\nvalue = [7, 7]"] ;
71 -> 72 ;
73 [label="entropy = 0.0\nsamples = 2\nvalue = [0, 2]"] ;
72 -> 73 ;
74 [label="X[2] <= 25.0\nentropy = 0.98\nsamples = 12\nvalue = [7, 5]"] ;
72 -> 74 ;
75 [label="entropy = 0.0\nsamples = 5\nvalue = [5, 0]"] ;
74 -> 75 ;
76 [label="X[5] <= 7.91\nentropy = 0.863\nsamples = 7\nvalue = [2, 5]"] ;
74 -> 76 ;
77 [label="entropy = 0.0\nsamples = 1\nvalue = [1, 0]"] ;
76 -> 77 ;
78 [label="X[2] <= 28.5\nentropy = 0.65\nsamples = 6\nvalue = [1, 5]"] ;
76 -> 78 ;
79 [label="entropy = 0.0\nsamples = 3\nvalue = [0, 3]"] ;
78 -> 79 ;
80 [label="X[5] <= 8.673\nentropy = 0.918\nsamples = 3\nvalue = [1, 2]"] ;
78 -> 80 ;
81 [label="entropy = 0.0\nsamples = 1\nvalue = [1, 0]"] ;
80 -> 81 ;
82 [label="entropy = 0.0\nsamples = 2\nvalue = [0, 2]"] ;
80 -> 82 ;
83 [label="X[5] <= 19.262\nentropy = 0.684\nsamples = 11\nvalue = [9, 2]"] ;
71 -> 83 ;
84 [label="X[5] <= 15.125\nentropy = 0.469\nsamples = 10\nvalue = [9, 1]"] ;
83 -> 84 ;
85 [label="entropy = 0.0\nsamples = 5\nvalue = [5, 0]"] ;
84 -> 85 ;
86 [label="X[5] <= 15.975\nentropy = 0.722\nsamples = 5\nvalue = [4, 1]"] ;
84 -> 86 ;
87 [label="entropy = 0.0\nsamples = 1\nvalue = [0, 1]"] ;
86 -> 87 ;
88 [label="entropy = 0.0\nsamples = 4\nvalue = [4, 0]"] ;
86 -> 88 ;
89 [label="entropy = 0.0\nsamples = 1\nvalue = [0, 1]"] ;
83 -> 89 ;
90 [label="entropy = 0.0\nsamples = 3\nvalue = [0, 3]"] ;
54 -> 90 ;
91 [label="entropy = 0.0\nsamples = 5\nvalue = [0, 5]"] ;
53 -> 91 ;
92 [label="X[2] <= 55.0\nentropy = 0.592\nsamples = 7\nvalue = [6, 1]"] ;
52 -> 92 ;
93 [label="entropy = 0.0\nsamples = 6\nvalue = [6, 0]"] ;
92 -> 93 ;
94 [label="entropy = 0.0\nsamples = 1\nvalue = [0, 1]"] ;
92 -> 94 ;
95 [label="X[2] <= 5.5\nentropy = 0.559\nsamples = 23\nvalue = [20, 3]"] ;
39 -> 95 ;
96 [label="X[2] <= 3.5\nentropy = 0.971\nsamples = 5\nvalue = [3, 2]"] ;
95 -> 96 ;
97 [label="entropy = 0.0\nsamples = 3\nvalue = [3, 0]"] ;
96 -> 97 ;
98 [label="entropy = 0.0\nsamples = 2\nvalue = [0, 2]"] ;
96 -> 98 ;
99 [label="X[4] <= 4.5\nentropy = 0.31\nsamples = 18\nvalue = [17, 1]"] ;
95 -> 99 ;
100 [label="entropy = 0.0\nsamples = 13\nvalue = [13, 0]"] ;
99 -> 100 ;
101 [label="X[2] <= 38.5\nentropy = 0.722\nsamples = 5\nvalue = [4, 1]"] ;
99 -> 101 ;
102 [label="entropy = 0.0\nsamples = 1\nvalue = [0, 1]"] ;
101 -> 102 ;
103 [label="entropy = 0.0\nsamples = 4\nvalue = [4, 0]"] ;
101 -> 103 ;
104 [label="X[0] <= 1.5\nentropy = 0.732\nsamples = 453\nvalue = [360, 93]"] ;
0 -> 104 [labeldistance=2.5, labelangle=-45, headlabel="False"] ;
105 [label="X[2] <= 53.0\nentropy = 0.969\nsamples = 101\nvalue = [61, 40]"] ;
104 -> 105 ;
106 [label="X[5] <= 25.938\nentropy = 0.997\nsamples = 79\nvalue = [42, 37]"] ;
105 -> 106 ;
107 [label="entropy = 0.0\nsamples = 5\nvalue = [5, 0]"] ;
106 -> 107 ;
108 [label="X[5] <= 27.135\nentropy = 1.0\nsamples = 74\nvalue = [37, 37]"] ;
106 -> 108 ;
109 [label="X[2] <= 43.5\nentropy = 0.439\nsamples = 11\nvalue = [1, 10]"] ;
108 -> 109 ;
110 [label="entropy = 0.0\nsamples = 7\nvalue = [0, 7]"] ;
109 -> 110 ;
111 [label="X[2] <= 46.5\nentropy = 0.811\nsamples = 4\nvalue = [1, 3]"] ;
109 -> 111 ;
112 [label="entropy = 1.0\nsamples = 2\nvalue = [1, 1]"] ;
111 -> 112 ;
113 [label="entropy = 0.0\nsamples = 2\nvalue = [0, 2]"] ;
111 -> 113 ;
114 [label="X[2] <= 17.5\nentropy = 0.985\nsamples = 63\nvalue = [36, 27]"] ;
108 -> 114 ;
115 [label="entropy = 0.0\nsamples = 4\nvalue = [0, 4]"] ;
114 -> 115 ;
116 [label="X[2] <= 22.5\nentropy = 0.965\nsamples = 59\nvalue = [36, 23]"] ;
114 -> 116 ;
117 [label="entropy = 0.0\nsamples = 5\nvalue = [5, 0]"] ;
116 -> 117 ;
118 [label="X[5] <= 29.85\nentropy = 0.984\nsamples = 54\nvalue = [31, 23]"] ;
116 -> 118 ;
119 [label="entropy = 0.0\nsamples = 4\nvalue = [4, 0]"] ;
118 -> 119 ;
120 [label="X[5] <= 32.51\nentropy = 0.995\nsamples = 50\nvalue = [27, 23]"] ;
118 -> 120 ;
121 [label="X[5] <= 30.25\nentropy = 0.65\nsamples = 6\nvalue = [1, 5]"] ;
120 -> 121 ;
122 [label="X[6] <= 1.0\nentropy = 1.0\nsamples = 2\nvalue = [1, 1]"] ;
121 -> 122 ;
123 [label="entropy = 0.0\nsamples = 1\nvalue = [0, 1]"] ;
122 -> 123 ;
124 [label="entropy = 0.0\nsamples = 1\nvalue = [1, 0]"] ;
122 -> 124 ;
125 [label="entropy = 0.0\nsamples = 4\nvalue = [0, 4]"] ;
121 -> 125 ;
126 [label="X[5] <= 379.925\nentropy = 0.976\nsamples = 44\nvalue = [26, 18]"] ;
120 -> 126 ;
127 [label="X[3] <= 0.5\nentropy = 0.959\nsamples = 42\nvalue = [26, 16]"] ;
126 -> 127 ;
128 [label="X[2] <= 29.5\nentropy = 0.696\nsamples = 16\nvalue = [13, 3]"] ;
127 -> 128 ;
129 [label="X[5] <= 77.965\nentropy = 0.985\nsamples = 7\nvalue = [4, 3]"] ;
128 -> 129 ;
130 [label="X[5] <= 55.229\nentropy = 0.811\nsamples = 4\nvalue = [1, 3]"] ;
129 -> 130 ;
131 [label="X[5] <= 41.3\nentropy = 1.0\nsamples = 2\nvalue = [1, 1]"] ;
130 -> 131 ;
132 [label="entropy = 0.0\nsamples = 1\nvalue = [0, 1]"] ;
131 -> 132 ;
133 [label="entropy = 0.0\nsamples = 1\nvalue = [1, 0]"] ;
131 -> 133 ;
134 [label="entropy = 0.0\nsamples = 2\nvalue = [0, 2]"] ;
130 -> 134 ;
135 [label="entropy = 0.0\nsamples = 3\nvalue = [3, 0]"] ;
129 -> 135 ;
136 [label="entropy = 0.0\nsamples = 9\nvalue = [9, 0]"] ;
128 -> 136 ;
137 [label="X[2] <= 27.5\nentropy = 1.0\nsamples = 26\nvalue = [13, 13]"] ;
127 -> 137 ;
138 [label="entropy = 0.0\nsamples = 3\nvalue = [0, 3]"] ;
137 -> 138 ;
139 [label="X[5] <= 115.442\nentropy = 0.988\nsamples = 23\nvalue = [13, 10]"] ;
137 -> 139 ;
140 [label="X[2] <= 49.5\nentropy = 0.959\nsamples = 21\nvalue = [13, 8]"] ;
139 -> 140 ;
141 [label="X[2] <= 47.0\nentropy = 0.991\nsamples = 18\nvalue = [10, 8]"] ;
140 -> 141 ;
142 [label="X[2] <= 43.0\nentropy = 0.89\nsamples = 13\nvalue = [9, 4]"] ;
141 -> 142 ;
143 [label="X[5] <= 52.277\nentropy = 0.971\nsamples = 10\nvalue = [6, 4]"] ;
142 -> 143 ;
144 [label="entropy = 0.0\nsamples = 2\nvalue = [2, 0]"] ;
143 -> 144 ;
145 [label="X[2] <= 30.0\nentropy = 1.0\nsamples = 8\nvalue = [4, 4]"] ;
143 -> 145 ;
146 [label="entropy = 0.0\nsamples = 2\nvalue = [2, 0]"] ;
145 -> 146 ;
147 [label="X[5] <= 52.827\nentropy = 0.918\nsamples = 6\nvalue = [2, 4]"] ;
145 -> 147 ;
148 [label="entropy = 0.0\nsamples = 2\nvalue = [0, 2]"] ;
147 -> 148 ;
149 [label="X[5] <= 55.05\nentropy = 1.0\nsamples = 4\nvalue = [2, 2]"] ;
147 -> 149 ;
150 [label="entropy = 0.0\nsamples = 1\nvalue = [1, 0]"] ;
149 -> 150 ;
151 [label="X[5] <= 67.925\nentropy = 0.918\nsamples = 3\nvalue = [1, 2]"] ;
149 -> 151 ;
152 [label="entropy = 0.0\nsamples = 1\nvalue = [0, 1]"] ;
151 -> 152 ;
153 [label="X[5] <= 84.425\nentropy = 1.0\nsamples = 2\nvalue = [1, 1]"] ;
151 -> 153 ;
154 [label="entropy = 0.0\nsamples = 1\nvalue = [1, 0]"] ;
153 -> 154 ;
155 [label="entropy = 0.0\nsamples = 1\nvalue = [0, 1]"] ;
153 -> 155 ;
156 [label="entropy = 0.0\nsamples = 3\nvalue = [3, 0]"] ;
142 -> 156 ;
157 [label="X[4] <= 0.5\nentropy = 0.722\nsamples = 5\nvalue = [1, 4]"] ;
141 -> 157 ;
158 [label="entropy = 0.0\nsamples = 4\nvalue = [0, 4]"] ;
157 -> 158 ;
159 [label="entropy = 0.0\nsamples = 1\nvalue = [1, 0]"] ;
157 -> 159 ;
160 [label="entropy = 0.0\nsamples = 3\nvalue = [3, 0]"] ;
140 -> 160 ;
161 [label="entropy = 0.0\nsamples = 2\nvalue = [0, 2]"] ;
139 -> 161 ;
162 [label="entropy = 0.0\nsamples = 2\nvalue = [0, 2]"] ;
126 -> 162 ;
163 [label="X[2] <= 75.5\nentropy = 0.575\nsamples = 22\nvalue = [19, 3]"] ;
105 -> 163 ;
164 [label="X[6] <= 1.0\nentropy = 0.454\nsamples = 21\nvalue = [19, 2]"] ;
163 -> 164 ;
165 [label="X[3] <= 0.5\nentropy = 0.811\nsamples = 8\nvalue = [6, 2]"] ;
164 -> 165 ;
166 [label="X[2] <= 57.0\nentropy = 0.592\nsamples = 7\nvalue = [6, 1]"] ;
165 -> 166 ;
167 [label="X[5] <= 33.098\nentropy = 1.0\nsamples = 2\nvalue = [1, 1]"] ;
166 -> 167 ;
168 [label="entropy = 0.0\nsamples = 1\nvalue = [1, 0]"] ;
167 -> 168 ;
169 [label="entropy = 0.0\nsamples = 1\nvalue = [0, 1]"] ;
167 -> 169 ;
170 [label="entropy = 0.0\nsamples = 5\nvalue = [5, 0]"] ;
166 -> 170 ;
171 [label="entropy = 0.0\nsamples = 1\nvalue = [0, 1]"] ;
165 -> 171 ;
172 [label="entropy = 0.0\nsamples = 13\nvalue = [13, 0]"] ;
164 -> 172 ;
173 [label="entropy = 0.0\nsamples = 1\nvalue = [0, 1]"] ;
163 -> 173 ;
174 [label="X[2] <= 9.5\nentropy = 0.611\nsamples = 352\nvalue = [299, 53]"] ;
104 -> 174 ;
175 [label="X[3] <= 2.5\nentropy = 0.987\nsamples = 30\nvalue = [13, 17]"] ;
174 -> 175 ;
176 [label="entropy = 0.0\nsamples = 16\nvalue = [0, 16]"] ;
175 -> 176 ;
177 [label="X[2] <= 3.5\nentropy = 0.371\nsamples = 14\nvalue = [13, 1]"] ;
175 -> 177 ;
178 [label="X[2] <= 2.5\nentropy = 0.65\nsamples = 6\nvalue = [5, 1]"] ;
177 -> 178 ;
179 [label="entropy = 0.0\nsamples = 5\nvalue = [5, 0]"] ;
178 -> 179 ;
180 [label="entropy = 0.0\nsamples = 1\nvalue = [0, 1]"] ;
178 -> 180 ;
181 [label="entropy = 0.0\nsamples = 8\nvalue = [8, 0]"] ;
177 -> 181 ;
182 [label="X[2] <= 32.25\nentropy = 0.505\nsamples = 322\nvalue = [286, 36]"] ;
174 -> 182 ;
183 [label="X[2] <= 30.75\nentropy = 0.58\nsamples = 217\nvalue = [187, 30]"] ;
182 -> 183 ;
184 [label="X[6] <= 1.5\nentropy = 0.507\nsamples = 196\nvalue = [174, 22]"] ;
183 -> 184 ;
185 [label="X[0] <= 2.5\nentropy = 0.84\nsamples = 26\nvalue = [19, 7]"] ;
184 -> 185 ;
186 [label="entropy = 0.0\nsamples = 4\nvalue = [4, 0]"] ;
185 -> 186 ;
187 [label="X[5] <= 7.746\nentropy = 0.902\nsamples = 22\nvalue = [15, 7]"] ;
185 -> 187 ;
188 [label="X[2] <= 22.75\nentropy = 0.592\nsamples = 14\nvalue = [12, 2]"] ;
187 -> 188 ;
189 [label="X[2] <= 19.5\nentropy = 0.811\nsamples = 8\nvalue = [6, 2]"] ;
188 -> 189 ;
190 [label="entropy = 0.0\nsamples = 3\nvalue = [3, 0]"] ;
189 -> 190 ;
191 [label="X[6] <= 0.5\nentropy = 0.971\nsamples = 5\nvalue = [3, 2]"] ;
189 -> 191 ;
192 [label="X[5] <= 5.619\nentropy = 1.0\nsamples = 4\nvalue = [2, 2]"] ;
191 -> 192 ;
193 [label="entropy = 0.0\nsamples = 1\nvalue = [1, 0]"] ;
192 -> 193 ;
194 [label="X[5] <= 7.227\nentropy = 0.918\nsamples = 3\nvalue = [1, 2]"] ;
192 -> 194 ;
195 [label="entropy = 0.0\nsamples = 1\nvalue = [0, 1]"] ;
194 -> 195 ;
196 [label="X[2] <= 21.0\nentropy = 1.0\nsamples = 2\nvalue = [1, 1]"] ;
194 -> 196 ;
197 [label="entropy = 0.0\nsamples = 1\nvalue = [0, 1]"] ;
196 -> 197 ;
198 [label="entropy = 0.0\nsamples = 1\nvalue = [1, 0]"] ;
196 -> 198 ;
199 [label="entropy = 0.0\nsamples = 1\nvalue = [1, 0]"] ;
191 -> 199 ;
200 [label="entropy = 0.0\nsamples = 6\nvalue = [6, 0]"] ;
188 -> 200 ;
201 [label="X[5] <= 12.848\nentropy = 0.954\nsamples = 8\nvalue = [3, 5]"] ;
187 -> 201 ;
202 [label="entropy = 0.0\nsamples = 3\nvalue = [0, 3]"] ;
201 -> 202 ;
203 [label="X[5] <= 15.098\nentropy = 0.971\nsamples = 5\nvalue = [3, 2]"] ;
201 -> 203 ;
204 [label="entropy = 0.0\nsamples = 2\nvalue = [2, 0]"] ;
203 -> 204 ;
205 [label="X[2] <= 15.5\nentropy = 0.918\nsamples = 3\nvalue = [1, 2]"] ;
203 -> 205 ;
206 [label="entropy = 0.0\nsamples = 1\nvalue = [1, 0]"] ;
205 -> 206 ;
207 [label="entropy = 0.0\nsamples = 2\nvalue = [0, 2]"] ;
205 -> 207 ;
208 [label="X[5] <= 11.0\nentropy = 0.431\nsamples = 170\nvalue = [155, 15]"] ;
184 -> 208 ;
209 [label="X[5] <= 7.01\nentropy = 0.523\nsamples = 119\nvalue = [105, 14]"] ;
208 -> 209 ;
210 [label="X[2] <= 22.0\nentropy = 1.0\nsamples = 4\nvalue = [2, 2]"] ;
209 -> 210 ;
211 [label="entropy = 0.0\nsamples = 2\nvalue = [2, 0]"] ;
210 -> 211 ;
212 [label="entropy = 0.0\nsamples = 2\nvalue = [0, 2]"] ;
210 -> 212 ;
213 [label="X[5] <= 7.133\nentropy = 0.483\nsamples = 115\nvalue = [103, 12]"] ;
209 -> 213 ;
214 [label="entropy = 0.0\nsamples = 8\nvalue = [8, 0]"] ;
213 -> 214 ;
215 [label="X[5] <= 7.196\nentropy = 0.506\nsamples = 107\nvalue = [95, 12]"] ;
213 -> 215 ;
216 [label="entropy = 0.0\nsamples = 1\nvalue = [0, 1]"] ;
215 -> 216 ;
217 [label="X[5] <= 7.763\nentropy = 0.481\nsamples = 106\nvalue = [95, 11]"] ;
215 -> 217 ;
218 [label="entropy = 0.0\nsamples = 12\nvalue = [12, 0]"] ;
217 -> 218 ;
219 [label="X[3] <= 0.5\nentropy = 0.521\nsamples = 94\nvalue = [83, 11]"] ;
217 -> 219 ;
220 [label="X[5] <= 7.988\nentropy = 0.48\nsamples = 87\nvalue = [78, 9]"] ;
219 -> 220 ;
221 [label="X[5] <= 7.798\nentropy = 0.303\nsamples = 37\nvalue = [35, 2]"] ;
220 -> 221 ;
222 [label="X[5] <= 7.785\nentropy = 0.65\nsamples = 12\nvalue = [10, 2]"] ;
221 -> 222 ;
223 [label="entropy = 0.0\nsamples = 6\nvalue = [6, 0]"] ;
222 -> 223 ;
224 [label="X[2] <= 19.5\nentropy = 0.918\nsamples = 6\nvalue = [4, 2]"] ;
222 -> 224 ;
225 [label="entropy = 0.0\nsamples = 1\nvalue = [1, 0]"] ;
224 -> 225 ;
226 [label="X[2] <= 21.5\nentropy = 0.971\nsamples = 5\nvalue = [3, 2]"] ;
224 -> 226 ;
227 [label="entropy = 0.0\nsamples = 1\nvalue = [0, 1]"] ;
226 -> 227 ;
228 [label="X[2] <= 25.5\nentropy = 0.811\nsamples = 4\nvalue = [3, 1]"] ;
226 -> 228 ;
229 [label="entropy = 0.0\nsamples = 2\nvalue = [2, 0]"] ;
228 -> 229 ;
230 [label="X[2] <= 27.5\nentropy = 1.0\nsamples = 2\nvalue = [1, 1]"] ;
228 -> 230 ;
231 [label="entropy = 0.0\nsamples = 1\nvalue = [0, 1]"] ;
230 -> 231 ;
232 [label="entropy = 0.0\nsamples = 1\nvalue = [1, 0]"] ;
230 -> 232 ;
233 [label="entropy = 0.0\nsamples = 25\nvalue = [25, 0]"] ;
221 -> 233 ;
234 [label="X[2] <= 19.5\nentropy = 0.584\nsamples = 50\nvalue = [43, 7]"] ;
220 -> 234 ;
235 [label="X[5] <= 8.104\nentropy = 0.811\nsamples = 16\nvalue = [12, 4]"] ;
234 -> 235 ;
236 [label="X[2] <= 17.0\nentropy = 0.971\nsamples = 5\nvalue = [2, 3]"] ;
235 -> 236 ;
237 [label="entropy = 1.0\nsamples = 2\nvalue = [1, 1]"] ;
236 -> 237 ;
238 [label="X[2] <= 18.5\nentropy = 0.918\nsamples = 3\nvalue = [1, 2]"] ;
236 -> 238 ;
239 [label="entropy = 0.0\nsamples = 1\nvalue = [0, 1]"] ;
238 -> 239 ;
240 [label="entropy = 1.0\nsamples = 2\nvalue = [1, 1]"] ;
238 -> 240 ;
241 [label="X[5] <= 10.335\nentropy = 0.439\nsamples = 11\nvalue = [10, 1]"] ;
235 -> 241 ;
242 [label="entropy = 0.0\nsamples = 8\nvalue = [8, 0]"] ;
241 -> 242 ;
243 [label="X[2] <= 17.5\nentropy = 0.918\nsamples = 3\nvalue = [2, 1]"] ;
241 -> 243 ;
244 [label="entropy = 0.0\nsamples = 1\nvalue = [1, 0]"] ;
243 -> 244 ;
245 [label="entropy = 1.0\nsamples = 2\nvalue = [1, 1]"] ;
243 -> 245 ;
246 [label="X[2] <= 26.5\nentropy = 0.431\nsamples = 34\nvalue = [31, 3]"] ;
234 -> 246 ;
247 [label="entropy = 0.0\nsamples = 21\nvalue = [21, 0]"] ;
246 -> 247 ;
248 [label="X[2] <= 27.5\nentropy = 0.779\nsamples = 13\nvalue = [10, 3]"] ;
246 -> 248 ;
249 [label="entropy = 0.0\nsamples = 1\nvalue = [0, 1]"] ;
248 -> 249 ;
250 [label="X[5] <= 9.492\nentropy = 0.65\nsamples = 12\nvalue = [10, 2]"] ;
248 -> 250 ;
251 [label="entropy = 0.0\nsamples = 5\nvalue = [5, 0]"] ;
250 -> 251 ;
252 [label="X[5] <= 10.0\nentropy = 0.863\nsamples = 7\nvalue = [5, 2]"] ;
250 -> 252 ;
253 [label="X[2] <= 28.5\nentropy = 1.0\nsamples = 4\nvalue = [2, 2]"] ;
252 -> 253 ;
254 [label="entropy = 0.0\nsamples = 2\nvalue = [2, 0]"] ;
253 -> 254 ;
255 [label="entropy = 0.0\nsamples = 2\nvalue = [0, 2]"] ;
253 -> 255 ;
256 [label="entropy = 0.0\nsamples = 3\nvalue = [3, 0]"] ;
252 -> 256 ;
257 [label="X[2] <= 25.5\nentropy = 0.863\nsamples = 7\nvalue = [5, 2]"] ;
219 -> 257 ;
258 [label="X[5] <= 7.89\nentropy = 1.0\nsamples = 4\nvalue = [2, 2]"] ;
257 -> 258 ;
259 [label="X[2] <= 21.5\nentropy = 0.918\nsamples = 3\nvalue = [2, 1]"] ;
258 -> 259 ;
260 [label="entropy = 0.0\nsamples = 1\nvalue = [1, 0]"] ;
259 -> 260 ;
261 [label="entropy = 1.0\nsamples = 2\nvalue = [1, 1]"] ;
259 -> 261 ;
262 [label="entropy = 0.0\nsamples = 1\nvalue = [0, 1]"] ;
258 -> 262 ;
263 [label="entropy = 0.0\nsamples = 3\nvalue = [3, 0]"] ;
257 -> 263 ;
264 [label="X[5] <= 51.698\nentropy = 0.139\nsamples = 51\nvalue = [50, 1]"] ;
208 -> 264 ;
265 [label="entropy = 0.0\nsamples = 45\nvalue = [45, 0]"] ;
264 -> 265 ;
266 [label="X[2] <= 25.0\nentropy = 0.65\nsamples = 6\nvalue = [5, 1]"] ;
264 -> 266 ;
267 [label="entropy = 0.0\nsamples = 4\nvalue = [4, 0]"] ;
266 -> 267 ;
268 [label="X[2] <= 27.0\nentropy = 1.0\nsamples = 2\nvalue = [1, 1]"] ;
266 -> 268 ;
269 [label="entropy = 0.0\nsamples = 1\nvalue = [0, 1]"] ;
268 -> 269 ;
270 [label="entropy = 0.0\nsamples = 1\nvalue = [1, 0]"] ;
268 -> 270 ;
271 [label="X[5] <= 7.815\nentropy = 0.959\nsamples = 21\nvalue = [13, 8]"] ;
183 -> 271 ;
272 [label="entropy = 0.0\nsamples = 3\nvalue = [3, 0]"] ;
271 -> 272 ;
273 [label="X[4] <= 0.5\nentropy = 0.991\nsamples = 18\nvalue = [10, 8]"] ;
271 -> 273 ;
274 [label="X[3] <= 1.5\nentropy = 1.0\nsamples = 16\nvalue = [8, 8]"] ;
273 -> 274 ;
275 [label="X[5] <= 20.925\nentropy = 0.997\nsamples = 15\nvalue = [7, 8]"] ;
274 -> 275 ;
276 [label="X[5] <= 7.875\nentropy = 0.98\nsamples = 12\nvalue = [7, 5]"] ;
275 -> 276 ;
277 [label="entropy = 0.0\nsamples = 1\nvalue = [0, 1]"] ;
276 -> 277 ;
278 [label="X[2] <= 31.5\nentropy = 0.946\nsamples = 11\nvalue = [7, 4]"] ;
276 -> 278 ;
279 [label="X[5] <= 9.213\nentropy = 0.918\nsamples = 3\nvalue = [1, 2]"] ;
278 -> 279 ;
280 [label="entropy = 0.0\nsamples = 1\nvalue = [0, 1]"] ;
279 -> 280 ;
281 [label="X[5] <= 11.75\nentropy = 1.0\nsamples = 2\nvalue = [1, 1]"] ;
279 -> 281 ;
282 [label="entropy = 0.0\nsamples = 1\nvalue = [1, 0]"] ;
281 -> 282 ;
283 [label="entropy = 0.0\nsamples = 1\nvalue = [0, 1]"] ;
281 -> 283 ;
284 [label="X[5] <= 8.206\nentropy = 0.811\nsamples = 8\nvalue = [6, 2]"] ;
278 -> 284 ;
285 [label="X[5] <= 7.988\nentropy = 0.971\nsamples = 5\nvalue = [3, 2]"] ;
284 -> 285 ;
286 [label="X[5] <= 7.91\nentropy = 0.811\nsamples = 4\nvalue = [3, 1]"] ;
285 -> 286 ;
287 [label="entropy = 0.0\nsamples = 1\nvalue = [1, 0]"] ;
286 -> 287 ;
288 [label="entropy = 0.918\nsamples = 3\nvalue = [2, 1]"] ;
286 -> 288 ;
289 [label="entropy = 0.0\nsamples = 1\nvalue = [0, 1]"] ;
285 -> 289 ;
290 [label="entropy = 0.0\nsamples = 3\nvalue = [3, 0]"] ;
284 -> 290 ;
291 [label="entropy = 0.0\nsamples = 3\nvalue = [0, 3]"] ;
275 -> 291 ;
292 [label="entropy = 0.0\nsamples = 1\nvalue = [1, 0]"] ;
274 -> 292 ;
293 [label="entropy = 0.0\nsamples = 2\nvalue = [2, 0]"] ;
273 -> 293 ;
294 [label="X[5] <= 7.91\nentropy = 0.316\nsamples = 105\nvalue = [99, 6]"] ;
182 -> 294 ;
295 [label="entropy = 0.0\nsamples = 32\nvalue = [32, 0]"] ;
294 -> 295 ;
296 [label="X[5] <= 13.25\nentropy = 0.41\nsamples = 73\nvalue = [67, 6]"] ;
294 -> 296 ;
297 [label="X[5] <= 7.988\nentropy = 0.592\nsamples = 42\nvalue = [36, 6]"] ;
296 -> 297 ;
298 [label="X[3] <= 1.0\nentropy = 1.0\nsamples = 4\nvalue = [2, 2]"] ;
297 -> 298 ;
299 [label="X[2] <= 41.5\nentropy = 0.918\nsamples = 3\nvalue = [1, 2]"] ;
298 -> 299 ;
300 [label="entropy = 1.0\nsamples = 2\nvalue = [1, 1]"] ;
299 -> 300 ;
301 [label="entropy = 0.0\nsamples = 1\nvalue = [0, 1]"] ;
299 -> 301 ;
302 [label="entropy = 0.0\nsamples = 1\nvalue = [1, 0]"] ;
298 -> 302 ;
303 [label="X[2] <= 59.5\nentropy = 0.485\nsamples = 38\nvalue = [34, 4]"] ;
297 -> 303 ;
304 [label="X[2] <= 46.0\nentropy = 0.422\nsamples = 35\nvalue = [32, 3]"] ;
303 -> 304 ;
305 [label="X[2] <= 44.5\nentropy = 0.516\nsamples = 26\nvalue = [23, 3]"] ;
304 -> 305 ;
306 [label="X[5] <= 12.938\nentropy = 0.402\nsamples = 25\nvalue = [23, 2]"] ;
305 -> 306 ;
307 [label="entropy = 0.0\nsamples = 17\nvalue = [17, 0]"] ;
306 -> 307 ;
308 [label="X[2] <= 40.5\nentropy = 0.811\nsamples = 8\nvalue = [6, 2]"] ;
306 -> 308 ;
309 [label="X[2] <= 35.0\nentropy = 0.65\nsamples = 6\nvalue = [5, 1]"] ;
308 -> 309 ;
310 [label="entropy = 0.918\nsamples = 3\nvalue = [2, 1]"] ;
309 -> 310 ;
311 [label="entropy = 0.0\nsamples = 3\nvalue = [3, 0]"] ;
309 -> 311 ;
312 [label="entropy = 1.0\nsamples = 2\nvalue = [1, 1]"] ;
308 -> 312 ;
313 [label="entropy = 0.0\nsamples = 1\nvalue = [0, 1]"] ;
305 -> 313 ;
314 [label="entropy = 0.0\nsamples = 9\nvalue = [9, 0]"] ;
304 -> 314 ;
315 [label="X[2] <= 64.0\nentropy = 0.918\nsamples = 3\nvalue = [2, 1]"] ;
303 -> 315 ;
316 [label="entropy = 0.0\nsamples = 1\nvalue = [0, 1]"] ;
315 -> 316 ;
317 [label="entropy = 0.0\nsamples = 2\nvalue = [2, 0]"] ;
315 -> 317 ;
318 [label="entropy = 0.0\nsamples = 31\nvalue = [31, 0]"] ;
296 -> 318 ;
}
