digraph Tree {
node [shape=box] ;
0 [label="X[1] <= 0.5\nentropy = 0.966\nsamples = 474\nvalue = [288, 186]"] ;
1 [label="X[0] <= 2.5\nentropy = 0.814\nsamples = 167\nvalue = [42, 125]"] ;
0 -> 1 [labeldistance=2.5, labelangle=45, headlabel="True"] ;
2 [label="X[6] <= 1.5\nentropy = 0.307\nsamples = 109\nvalue = [6, 103]"] ;
1 -> 2 ;
3 [label="entropy = 0.0\nsamples = 35\nvalue = [0, 35]"] ;
2 -> 3 ;
4 [label="X[2] <= 44.5\nentropy = 0.406\nsamples = 74\nvalue = [6, 68]"] ;
2 -> 4 ;
5 [label="X[2] <= 43.5\nentropy = 0.469\nsamples = 60\nvalue = [6, 54]"] ;
4 -> 5 ;
6 [label="X[2] <= 3.0\nentropy = 0.419\nsamples = 59\nvalue = [5, 54]"] ;
5 -> 6 ;
7 [label="X[0] <= 1.5\nentropy = 1.0\nsamples = 2\nvalue = [1, 1]"] ;
6 -> 7 ;
8 [label="entropy = 0.0\nsamples = 1\nvalue = [1, 0]"] ;
7 -> 8 ;
9 [label="entropy = 0.0\nsamples = 1\nvalue = [0, 1]"] ;
7 -> 9 ;
10 [label="X[2] <= 23.5\nentropy = 0.367\nsamples = 57\nvalue = [4, 53]"] ;
6 -> 10 ;
11 [label="entropy = 0.0\nsamples = 18\nvalue = [0, 18]"] ;
10 -> 11 ;
12 [label="X[2] <= 26.5\nentropy = 0.477\nsamples = 39\nvalue = [4, 35]"] ;
10 -> 12 ;
13 [label="X[2] <= 24.5\nentropy = 0.918\nsamples = 9\nvalue = [3, 6]"] ;
12 -> 13 ;
14 [label="X[5] <= 13.75\nentropy = 0.65\nsamples = 6\nvalue = [1, 5]"] ;
13 -> 14 ;
15 [label="entropy = 1.0\nsamples = 2\nvalue = [1, 1]"] ;
14 -> 15 ;
16 [label="entropy = 0.0\nsamples = 4\nvalue = [0, 4]"] ;
14 -> 16 ;
17 [label="X[3] <= 0.5\nentropy = 0.918\nsamples = 3\nvalue = [2, 1]"] ;
13 -> 17 ;
18 [label="entropy = 0.0\nsamples = 1\nvalue = [0, 1]"] ;
17 -> 18 ;
19 [label="entropy = 0.0\nsamples = 2\nvalue = [2, 0]"] ;
17 -> 19 ;
20 [label="X[2] <= 37.0\nentropy = 0.211\nsamples = 30\nvalue = [1, 29]"] ;
12 -> 20 ;
21 [label="entropy = 0.0\nsamples = 22\nvalue = [0, 22]"] ;
20 -> 21 ;
22 [label="X[2] <= 38.5\nentropy = 0.544\nsamples = 8\nvalue = [1, 7]"] ;
20 -> 22 ;
23 [label="entropy = 0.0\nsamples = 1\nvalue = [1, 0]"] ;
22 -> 23 ;
24 [label="entropy = 0.0\nsamples = 7\nvalue = [0, 7]"] ;
22 -> 24 ;
25 [label="entropy = 0.0\nsamples = 1\nvalue = [1, 0]"] ;
5 -> 25 ;
26 [label="entropy = 0.0\nsamples = 14\nvalue = [0, 14]"] ;
4 -> 26 ;
27 [label="X[2] <= 36.0\nentropy = 0.958\nsamples = 58\nvalue = [36, 22]"] ;
1 -> 27 ;
28 [label="X[5] <= 20.663\nentropy = 0.995\nsamples = 48\nvalue = [26, 22]"] ;
27 -> 28 ;
29 [label="X[5] <= 14.852\nentropy = 0.977\nsamples = 34\nvalue = [14, 20]"] ;
28 -> 29 ;
30 [label="X[2] <= 27.5\nentropy = 1.0\nsamples = 28\nvalue = [14, 14]"] ;
29 -> 30 ;
31 [label="X[2] <= 9.75\nentropy = 0.98\nsamples = 24\nvalue = [10, 14]"] ;
30 -> 31 ;
32 [label="entropy = 0.0\nsamples = 3\nvalue = [0, 3]"] ;
31 -> 32 ;
33 [label="X[2] <= 25.0\nentropy = 0.998\nsamples = 21\nvalue = [10, 11]"] ;
31 -> 33 ;
34 [label="X[2] <= 22.5\nentropy = 0.991\nsamples = 18\nvalue = [10, 8]"] ;
33 -> 34 ;
35 [label="X[2] <= 21.5\nentropy = 1.0\nsamples = 16\nvalue = [8, 8]"] ;
34 -> 35 ;
36 [label="X[2] <= 19.5\nentropy = 0.961\nsamples = 13\nvalue = [8, 5]"] ;
35 -> 36 ;
37 [label="X[5] <= 12.148\nentropy = 1.0\nsamples = 10\nvalue = [5, 5]"] ;
36 -> 37 ;
38 [label="X[5] <= 7.815\nentropy = 0.918\nsamples = 6\nvalue = [2, 4]"] ;
37 -> 38 ;
39 [label="X[6] <= 0.5\nentropy = 0.918\nsamples = 3\nvalue = [2, 1]"] ;
38 -> 39 ;
40 [label="entropy = 0.0\nsamples = 1\nvalue = [0, 1]"] ;
39 -> 40 ;
41 [label="entropy = 0.0\nsamples = 2\nvalue = [2, 0]"] ;
39 -> 41 ;
42 [label="entropy = 0.0\nsamples = 3\nvalue = [0, 3]"] ;
38 -> 42 ;
43 [label="X[2] <= 16.0\nentropy = 0.811\nsamples = 4\nvalue = [3, 1]"] ;
37 -> 43 ;
44 [label="X[2] <= 14.75\nentropy = 1.0\nsamples = 2\nvalue = [1, 1]"] ;
43 -> 44 ;
45 [label="entropy = 0.0\nsamples = 1\nvalue = [1, 0]"] ;
44 -> 45 ;
46 [label="entropy = 0.0\nsamples = 1\nvalue = [0, 1]"] ;
44 -> 46 ;
47 [label="entropy = 0.0\nsamples = 2\nvalue = [2, 0]"] ;
43 -> 47 ;
48 [label="entropy = 0.0\nsamples = 3\nvalue = [3, 0]"] ;
36 -> 48 ;
49 [label="entropy = 0.0\nsamples = 3\nvalue = [0, 3]"] ;
35 -> 49 ;
50 [label="entropy = 0.0\nsamples = 2\nvalue = [2, 0]"] ;
34 -> 50 ;
51 [label="entropy = 0.0\nsamples = 3\nvalue = [0, 3]"] ;
33 -> 51 ;
52 [label="entropy = 0.0\nsamples = 4\nvalue = [4, 0]"] ;
30 -> 52 ;
53 [label="entropy = 0.0\nsamples = 6\nvalue = [0, 6]"] ;
29 -> 53 ;
54 [label="X[2] <= 6.5\nentropy = 0.592\nsamples = 14\nvalue = [12, 2]"] ;
28 -> 54 ;
55 [label="X[2] <= 3.5\nentropy = 0.971\nsamples = 5\nvalue = [3, 2]"] ;
54 -> 55 ;
56 [label="entropy = 0.0\nsamples = 3\nvalue = [3, 0]"] ;
55 -> 56 ;
57 [label="entropy = 0.0\nsamples = 2\nvalue = [0, 2]"] ;
55 -> 57 ;
58 [label="entropy = 0.0\nsamples = 9\nvalue = [9, 0]"] ;
54 -> 58 ;
59 [label="entropy = 0.0\nsamples = 10\nvalue = [10, 0]"] ;
27 -> 59 ;
60 [label="X[2] <= 10.0\nentropy = 0.719\nsamples = 307\nvalue = [246, 61]"] ;
0 -> 60 [labeldistance=2.5, labelangle=-45, headlabel="False"] ;
61 [label="X[3] <= 2.5\nentropy = 0.98\nsamples = 24\nvalue = [10, 14]"] ;
60 -> 61 ;
62 [label="entropy = 0.0\nsamples = 13\nvalue = [0, 13]"] ;
61 -> 62 ;
63 [label="X[4] <= 1.5\nentropy = 0.439\nsamples = 11\nvalue = [10, 1]"] ;
61 -> 63 ;
64 [label="entropy = 0.0\nsamples = 6\nvalue = [6, 0]"] ;
63 -> 64 ;
65 [label="X[2] <= 3.5\nentropy = 0.722\nsamples = 5\nvalue = [4, 1]"] ;
63 -> 65 ;
66 [label="X[2] <= 2.0\nentropy = 1.0\nsamples = 2\nvalue = [1, 1]"] ;
65 -> 66 ;
67 [label="entropy = 0.0\nsamples = 1\nvalue = [1, 0]"] ;
66 -> 67 ;
68 [label="entropy = 0.0\nsamples = 1\nvalue = [0, 1]"] ;
66 -> 68 ;
69 [label="entropy = 0.0\nsamples = 3\nvalue = [3, 0]"] ;
65 -> 69 ;
70 [label="X[5] <= 26.269\nentropy = 0.649\nsamples = 283\nvalue = [236, 47]"] ;
60 -> 70 ;
71 [label="X[5] <= 19.5\nentropy = 0.5\nsamples = 209\nvalue = [186, 23]"] ;
70 -> 71 ;
72 [label="X[5] <= 7.746\nentropy = 0.534\nsamples = 189\nvalue = [166, 23]"] ;
71 -> 72 ;
73 [label="X[5] <= 7.183\nentropy = 0.281\nsamples = 41\nvalue = [39, 2]"] ;
72 -> 73 ;
74 [label="X[5] <= 7.133\nentropy = 0.426\nsamples = 23\nvalue = [21, 2]"] ;
73 -> 74 ;
75 [label="X[5] <= 2.006\nentropy = 0.267\nsamples = 22\nvalue = [21, 1]"] ;
74 -> 75 ;
76 [label="X[2] <= 30.5\nentropy = 0.722\nsamples = 5\nvalue = [4, 1]"] ;
75 -> 76 ;
77 [label="entropy = 0.0\nsamples = 1\nvalue = [0, 1]"] ;
76 -> 77 ;
78 [label="entropy = 0.0\nsamples = 4\nvalue = [4, 0]"] ;
76 -> 78 ;
79 [label="entropy = 0.0\nsamples = 17\nvalue = [17, 0]"] ;
75 -> 79 ;
80 [label="entropy = 0.0\nsamples = 1\nvalue = [0, 1]"] ;
74 -> 80 ;
81 [label="entropy = 0.0\nsamples = 18\nvalue = [18, 0]"] ;
73 -> 81 ;
82 [label="X[5] <= 8.227\nentropy = 0.589\nsamples = 148\nvalue = [127, 21]"] ;
72 -> 82 ;
83 [label="X[2] <= 46.5\nentropy = 0.687\nsamples = 71\nvalue = [58, 13]"] ;
82 -> 83 ;
84 [label="X[2] <= 44.5\nentropy = 0.722\nsamples = 65\nvalue = [52, 13]"] ;
83 -> 84 ;
85 [label="X[2] <= 19.5\nentropy = 0.696\nsamples = 64\nvalue = [52, 12]"] ;
84 -> 85 ;
86 [label="X[5] <= 7.923\nentropy = 0.881\nsamples = 10\nvalue = [7, 3]"] ;
85 -> 86 ;
87 [label="entropy = 0.0\nsamples = 5\nvalue = [5, 0]"] ;
86 -> 87 ;
88 [label="X[2] <= 17.0\nentropy = 0.971\nsamples = 5\nvalue = [2, 3]"] ;
86 -> 88 ;
89 [label="entropy = 1.0\nsamples = 2\nvalue = [1, 1]"] ;
88 -> 89 ;
90 [label="X[2] <= 18.5\nentropy = 0.918\nsamples = 3\nvalue = [1, 2]"] ;
88 -> 90 ;
91 [label="entropy = 0.0\nsamples = 1\nvalue = [0, 1]"] ;
90 -> 91 ;
92 [label="entropy = 1.0\nsamples = 2\nvalue = [1, 1]"] ;
90 -> 92 ;
93 [label="X[5] <= 7.988\nentropy = 0.65\nsamples = 54\nvalue = [45, 9]"] ;
85 -> 93 ;
94 [label="X[2] <= 42.25\nentropy = 0.779\nsamples = 39\nvalue = [30, 9]"] ;
93 -> 94 ;
95 [label="X[5] <= 7.871\nentropy = 0.742\nsamples = 38\nvalue = [30, 8]"] ;
94 -> 95 ;
96 [label="X[2] <= 32.5\nentropy = 0.918\nsamples = 15\nvalue = [10, 5]"] ;
95 -> 96 ;
97 [label="X[2] <= 31.5\nentropy = 0.961\nsamples = 13\nvalue = [8, 5]"] ;
96 -> 97 ;
98 [label="X[2] <= 30.0\nentropy = 0.918\nsamples = 12\nvalue = [8, 4]"] ;
97 -> 98 ;
99 [label="X[5] <= 7.825\nentropy = 0.971\nsamples = 10\nvalue = [6, 4]"] ;
98 -> 99 ;
100 [label="X[2] <= 24.5\nentropy = 1.0\nsamples = 8\nvalue = [4, 4]"] ;
99 -> 100 ;
101 [label="X[2] <= 21.5\nentropy = 0.811\nsamples = 4\nvalue = [3, 1]"] ;
100 -> 101 ;
102 [label="X[5] <= 7.785\nentropy = 1.0\nsamples = 2\nvalue = [1, 1]"] ;
101 -> 102 ;
103 [label="entropy = 0.0\nsamples = 1\nvalue = [1, 0]"] ;
102 -> 103 ;
104 [label="entropy = 0.0\nsamples = 1\nvalue = [0, 1]"] ;
102 -> 104 ;
105 [label="entropy = 0.0\nsamples = 2\nvalue = [2, 0]"] ;
101 -> 105 ;
106 [label="X[5] <= 7.785\nentropy = 0.811\nsamples = 4\nvalue = [1, 3]"] ;
100 -> 106 ;
107 [label="entropy = 0.0\nsamples = 2\nvalue = [0, 2]"] ;
106 -> 107 ;
108 [label="X[2] <= 27.5\nentropy = 1.0\nsamples = 2\nvalue = [1, 1]"] ;
106 -> 108 ;
109 [label="entropy = 0.0\nsamples = 1\nvalue = [0, 1]"] ;
108 -> 109 ;
110 [label="entropy = 0.0\nsamples = 1\nvalue = [1, 0]"] ;
108 -> 110 ;
111 [label="entropy = 0.0\nsamples = 2\nvalue = [2, 0]"] ;
99 -> 111 ;
112 [label="entropy = 0.0\nsamples = 2\nvalue = [2, 0]"] ;
98 -> 112 ;
113 [label="entropy = 0.0\nsamples = 1\nvalue = [0, 1]"] ;
97 -> 113 ;
114 [label="entropy = 0.0\nsamples = 2\nvalue = [2, 0]"] ;
96 -> 114 ;
115 [label="X[2] <= 28.5\nentropy = 0.559\nsamples = 23\nvalue = [20, 3]"] ;
95 -> 115 ;
116 [label="entropy = 0.0\nsamples = 12\nvalue = [12, 0]"] ;
115 -> 116 ;
117 [label="X[2] <= 31.5\nentropy = 0.845\nsamples = 11\nvalue = [8, 3]"] ;
115 -> 117 ;
118 [label="X[6] <= 1.0\nentropy = 0.918\nsamples = 3\nvalue = [1, 2]"] ;
117 -> 118 ;
119 [label="entropy = 0.0\nsamples = 1\nvalue = [0, 1]"] ;
118 -> 119 ;
120 [label="X[2] <= 30.5\nentropy = 1.0\nsamples = 2\nvalue = [1, 1]"] ;
118 -> 120 ;
121 [label="entropy = 0.0\nsamples = 1\nvalue = [1, 0]"] ;
120 -> 121 ;
122 [label="entropy = 0.0\nsamples = 1\nvalue = [0, 1]"] ;
120 -> 122 ;
123 [label="X[2] <= 38.5\nentropy = 0.544\nsamples = 8\nvalue = [7, 1]"] ;
117 -> 123 ;
124 [label="entropy = 0.0\nsamples = 6\nvalue = [6, 0]"] ;
123 -> 124 ;
125 [label="entropy = 1.0\nsamples = 2\nvalue = [1, 1]"] ;
123 -> 125 ;
126 [label="entropy = 0.0\nsamples = 1\nvalue = [0, 1]"] ;
94 -> 126 ;
127 [label="entropy = 0.0\nsamples = 15\nvalue = [15, 0]"] ;
93 -> 127 ;
128 [label="entropy = 0.0\nsamples = 1\nvalue = [0, 1]"] ;
84 -> 128 ;
129 [label="entropy = 0.0\nsamples = 6\nvalue = [6, 0]"] ;
83 -> 129 ;
130 [label="X[5] <= 18.394\nentropy = 0.481\nsamples = 77\nvalue = [69, 8]"] ;
82 -> 130 ;
131 [label="X[2] <= 60.5\nentropy = 0.447\nsamples = 75\nvalue = [68, 7]"] ;
130 -> 131 ;
132 [label="X[2] <= 43.0\nentropy = 0.41\nsamples = 73\nvalue = [67, 6]"] ;
131 -> 132 ;
133 [label="X[2] <= 41.5\nentropy = 0.454\nsamples = 63\nvalue = [57, 6]"] ;
132 -> 133 ;
134 [label="X[2] <= 31.5\nentropy = 0.414\nsamples = 60\nvalue = [55, 5]"] ;
133 -> 134 ;
135 [label="X[4] <= 0.5\nentropy = 0.496\nsamples = 46\nvalue = [41, 5]"] ;
134 -> 135 ;
136 [label="X[2] <= 26.5\nentropy = 0.433\nsamples = 45\nvalue = [41, 4]"] ;
135 -> 136 ;
137 [label="X[2] <= 19.5\nentropy = 0.222\nsamples = 28\nvalue = [27, 1]"] ;
136 -> 137 ;
138 [label="X[0] <= 2.5\nentropy = 0.503\nsamples = 9\nvalue = [8, 1]"] ;
137 -> 138 ;
139 [label="X[5] <= 11.0\nentropy = 0.918\nsamples = 3\nvalue = [2, 1]"] ;
138 -> 139 ;
140 [label="entropy = 1.0\nsamples = 2\nvalue = [1, 1]"] ;
139 -> 140 ;
141 [label="entropy = 0.0\nsamples = 1\nvalue = [1, 0]"] ;
139 -> 141 ;
142 [label="entropy = 0.0\nsamples = 6\nvalue = [6, 0]"] ;
138 -> 142 ;
143 [label="entropy = 0.0\nsamples = 19\nvalue = [19, 0]"] ;
137 -> 143 ;
144 [label="X[5] <= 9.073\nentropy = 0.672\nsamples = 17\nvalue = [14, 3]"] ;
136 -> 144 ;
145 [label="entropy = 0.0\nsamples = 1\nvalue = [0, 1]"] ;
144 -> 145 ;
146 [label="X[2] <= 28.5\nentropy = 0.544\nsamples = 16\nvalue = [14, 2]"] ;
144 -> 146 ;
147 [label="entropy = 0.0\nsamples = 7\nvalue = [7, 0]"] ;
146 -> 147 ;
148 [label="X[2] <= 29.5\nentropy = 0.764\nsamples = 9\nvalue = [7, 2]"] ;
146 -> 148 ;
149 [label="X[5] <= 9.492\nentropy = 1.0\nsamples = 2\nvalue = [1, 1]"] ;
148 -> 149 ;
150 [label="entropy = 0.0\nsamples = 1\nvalue = [1, 0]"] ;
149 -> 150 ;
151 [label="entropy = 0.0\nsamples = 1\nvalue = [0, 1]"] ;
149 -> 151 ;
152 [label="X[2] <= 30.5\nentropy = 0.592\nsamples = 7\nvalue = [6, 1]"] ;
148 -> 152 ;
153 [label="entropy = 0.0\nsamples = 5\nvalue = [5, 0]"] ;
152 -> 153 ;
154 [label="X[5] <= 11.75\nentropy = 1.0\nsamples = 2\nvalue = [1, 1]"] ;
152 -> 154 ;
155 [label="entropy = 0.0\nsamples = 1\nvalue = [1, 0]"] ;
154 -> 155 ;
156 [label="entropy = 0.0\nsamples = 1\nvalue = [0, 1]"] ;
154 -> 156 ;
157 [label="entropy = 0.0\nsamples = 1\nvalue = [0, 1]"] ;
135 -> 157 ;
158 [label="entropy = 0.0\nsamples = 14\nvalue = [14, 0]"] ;
134 -> 158 ;
159 [label="X[0] <= 2.5\nentropy = 0.918\nsamples = 3\nvalue = [2, 1]"] ;
133 -> 159 ;
160 [label="entropy = 0.0\nsamples = 1\nvalue = [0, 1]"] ;
159 -> 160 ;
161 [label="entropy = 0.0\nsamples = 2\nvalue = [2, 0]"] ;
159 -> 161 ;
162 [label="entropy = 0.0\nsamples = 10\nvalue = [10, 0]"] ;
132 -> 162 ;
163 [label="X[2] <= 64.0\nentropy = 1.0\nsamples = 2\nvalue = [1, 1]"] ;
131 -> 163 ;
164 [label="entropy = 0.0\nsamples = 1\nvalue = [0, 1]"] ;
163 -> 164 ;
165 [label="entropy = 0.0\nsamples = 1\nvalue = [1, 0]"] ;
163 -> 165 ;
166 [label="X[2] <= 18.5\nentropy = 1.0\nsamples = 2\nvalue = [1, 1]"] ;
130 -> 166 ;
167 [label="entropy = 0.0\nsamples = 1\nvalue = [1, 0]"] ;
166 -> 167 ;
168 [label="entropy = 0.0\nsamples = 1\nvalue = [0, 1]"] ;
166 -> 168 ;
169 [label="entropy = 0.0\nsamples = 20\nvalue = [20, 0]"] ;
71 -> 169 ;
170 [label="X[2] <= 57.0\nentropy = 0.909\nsamples = 74\nvalue = [50, 24]"] ;
70 -> 170 ;
171 [label="X[5] <= 26.775\nentropy = 0.959\nsamples = 63\nvalue = [39, 24]"] ;
170 -> 171 ;
172 [label="entropy = 0.0\nsamples = 8\nvalue = [0, 8]"] ;
171 -> 172 ;
173 [label="X[2] <= 24.5\nentropy = 0.87\nsamples = 55\nvalue = [39, 16]"] ;
171 -> 173 ;
174 [label="entropy = 0.0\nsamples = 9\nvalue = [9, 0]"] ;
173 -> 174 ;
175 [label="X[5] <= 29.85\nentropy = 0.932\nsamples = 46\nvalue = [30, 16]"] ;
173 -> 175 ;
176 [label="entropy = 0.0\nsamples = 5\nvalue = [5, 0]"] ;
175 -> 176 ;
177 [label="X[6] <= 0.5\nentropy = 0.965\nsamples = 41\nvalue = [25, 16]"] ;
175 -> 177 ;
178 [label="X[0] <= 1.5\nentropy = 0.977\nsamples = 17\nvalue = [7, 10]"] ;
177 -> 178 ;
179 [label="X[2] <= 49.5\nentropy = 0.918\nsamples = 15\nvalue = [5, 10]"] ;
178 -> 179 ;
180 [label="X[2] <= 34.0\nentropy = 0.684\nsamples = 11\nvalue = [2, 9]"] ;
179 -> 180 ;
181 [label="entropy = 0.0\nsamples = 4\nvalue = [0, 4]"] ;
180 -> 181 ;
182 [label="X[5] <= 35.562\nentropy = 0.863\nsamples = 7\nvalue = [2, 5]"] ;
180 -> 182 ;
183 [label="entropy = 0.0\nsamples = 1\nvalue = [0, 1]"] ;
182 -> 183 ;
184 [label="X[5] <= 48.527\nentropy = 0.918\nsamples = 6\nvalue = [2, 4]"] ;
182 -> 184 ;
185 [label="entropy = 0.0\nsamples = 1\nvalue = [1, 0]"] ;
184 -> 185 ;
186 [label="X[5] <= 99.994\nentropy = 0.722\nsamples = 5\nvalue = [1, 4]"] ;
184 -> 186 ;
187 [label="entropy = 0.0\nsamples = 3\nvalue = [0, 3]"] ;
186 -> 187 ;
188 [label="X[5] <= 311.606\nentropy = 1.0\nsamples = 2\nvalue = [1, 1]"] ;
186 -> 188 ;
189 [label="entropy = 0.0\nsamples = 1\nvalue = [1, 0]"] ;
188 -> 189 ;
190 [label="entropy = 0.0\nsamples = 1\nvalue = [0, 1]"] ;
188 -> 190 ;
191 [label="X[5] <= 48.44\nentropy = 0.811\nsamples = 4\nvalue = [3, 1]"] ;
179 -> 191 ;
192 [label="X[5] <= 33.098\nentropy = 1.0\nsamples = 2\nvalue = [1, 1]"] ;
191 -> 192 ;
193 [label="entropy = 0.0\nsamples = 1\nvalue = [1, 0]"] ;
192 -> 193 ;
194 [label="entropy = 0.0\nsamples = 1\nvalue = [0, 1]"] ;
192 -> 194 ;
195 [label="entropy = 0.0\nsamples = 2\nvalue = [2, 0]"] ;
191 -> 195 ;
196 [label="entropy = 0.0\nsamples = 2\nvalue = [2, 0]"] ;
178 -> 196 ;
197 [label="X[2] <= 43.0\nentropy = 0.811\nsamples = 24\nvalue = [18, 6]"] ;
177 -> 197 ;
198 [label="X[2] <= 31.5\nentropy = 0.971\nsamples = 15\nvalue = [9, 6]"] ;
197 -> 198 ;
199 [label="X[5] <= 42.998\nentropy = 0.65\nsamples = 6\nvalue = [5, 1]"] ;
198 -> 199 ;
200 [label="X[5] <= 32.75\nentropy = 1.0\nsamples = 2\nvalue = [1, 1]"] ;
199 -> 200 ;
201 [label="entropy = 0.0\nsamples = 1\nvalue = [1, 0]"] ;
200 -> 201 ;
202 [label="entropy = 0.0\nsamples = 1\nvalue = [0, 1]"] ;
200 -> 202 ;
203 [label="entropy = 0.0\nsamples = 4\nvalue = [4, 0]"] ;
199 -> 203 ;
204 [label="X[0] <= 2.5\nentropy = 0.991\nsamples = 9\nvalue = [4, 5]"] ;
198 -> 204 ;
205 [label="X[4] <= 1.5\nentropy = 0.985\nsamples = 7\nvalue = [4, 3]"] ;
204 -> 205 ;
206 [label="X[2] <= 37.5\nentropy = 0.918\nsamples = 6\nvalue = [4, 2]"] ;
205 -> 206 ;
207 [label="entropy = 0.0\nsamples = 2\nvalue = [2, 0]"] ;
206 -> 207 ;
208 [label="X[3] <= 0.5\nentropy = 1.0\nsamples = 4\nvalue = [2, 2]"] ;
206 -> 208 ;
209 [label="entropy = 0.0\nsamples = 1\nvalue = [1, 0]"] ;
208 -> 209 ;
210 [label="X[5] <= 52.277\nentropy = 0.918\nsamples = 3\nvalue = [1, 2]"] ;
208 -> 210 ;
211 [label="entropy = 0.0\nsamples = 1\nvalue = [1, 0]"] ;
210 -> 211 ;
212 [label="entropy = 0.0\nsamples = 2\nvalue = [0, 2]"] ;
210 -> 212 ;
213 [label="entropy = 0.0\nsamples = 1\nvalue = [0, 1]"] ;
205 -> 213 ;
214 [label="entropy = 0.0\nsamples = 2\nvalue = [0, 2]"] ;
204 -> 214 ;
215 [label="entropy = 0.0\nsamples = 9\nvalue = [9, 0]"] ;
197 -> 215 ;
216 [label="entropy = 0.0\nsamples = 11\nvalue = [11, 0]"] ;
170 -> 216 ;
}
