digraph Tree {
node [shape=box] ;
0 [label="X[1] <= 0.5\ngini = 0.478\nsamples = 474\nvalue = [287, 187]"] ;
1 [label="X[0] <= 2.5\ngini = 0.366\nsamples = 174\nvalue = [42, 132]"] ;
0 -> 1 [labeldistance=2.5, labelangle=45, headlabel="True"] ;
2 [label="X[2] <= 2.5\ngini = 0.108\nsamples = 105\nvalue = [6, 99]"] ;
1 -> 2 ;
3 [label="X[5] <= 88.775\ngini = 0.5\nsamples = 2\nvalue = [1, 1]"] ;
2 -> 3 ;
4 [label="gini = 0.0\nsamples = 1\nvalue = [0, 1]"] ;
3 -> 4 ;
5 [label="gini = 0.0\nsamples = 1\nvalue = [1, 0]"] ;
3 -> 5 ;
6 [label="X[5] <= 26.125\ngini = 0.092\nsamples = 103\nvalue = [5, 98]"] ;
2 -> 6 ;
7 [label="X[2] <= 56.0\ngini = 0.188\nsamples = 38\nvalue = [4, 34]"] ;
6 -> 7 ;
8 [label="X[2] <= 27.5\ngini = 0.149\nsamples = 37\nvalue = [3, 34]"] ;
7 -> 8 ;
9 [label="X[2] <= 21.5\ngini = 0.298\nsamples = 11\nvalue = [2, 9]"] ;
8 -> 9 ;
10 [label="gini = 0.0\nsamples = 5\nvalue = [0, 5]"] ;
9 -> 10 ;
11 [label="X[4] <= 1.0\ngini = 0.444\nsamples = 6\nvalue = [2, 4]"] ;
9 -> 11 ;
12 [label="X[5] <= 23.5\ngini = 0.48\nsamples = 5\nvalue = [2, 3]"] ;
11 -> 12 ;
13 [label="X[5] <= 17.429\ngini = 0.5\nsamples = 4\nvalue = [2, 2]"] ;
12 -> 13 ;
14 [label="X[3] <= 0.5\ngini = 0.444\nsamples = 3\nvalue = [1, 2]"] ;
13 -> 14 ;
15 [label="gini = 0.5\nsamples = 2\nvalue = [1, 1]"] ;
14 -> 15 ;
16 [label="gini = 0.0\nsamples = 1\nvalue = [0, 1]"] ;
14 -> 16 ;
17 [label="gini = 0.0\nsamples = 1\nvalue = [1, 0]"] ;
13 -> 17 ;
18 [label="gini = 0.0\nsamples = 1\nvalue = [0, 1]"] ;
12 -> 18 ;
19 [label="gini = 0.0\nsamples = 1\nvalue = [0, 1]"] ;
11 -> 19 ;
20 [label="X[5] <= 25.965\ngini = 0.074\nsamples = 26\nvalue = [1, 25]"] ;
8 -> 20 ;
21 [label="gini = 0.0\nsamples = 20\nvalue = [0, 20]"] ;
20 -> 21 ;
22 [label="X[2] <= 43.0\ngini = 0.278\nsamples = 6\nvalue = [1, 5]"] ;
20 -> 22 ;
23 [label="gini = 0.0\nsamples = 4\nvalue = [0, 4]"] ;
22 -> 23 ;
24 [label="X[4] <= 0.5\ngini = 0.5\nsamples = 2\nvalue = [1, 1]"] ;
22 -> 24 ;
25 [label="gini = 0.0\nsamples = 1\nvalue = [1, 0]"] ;
24 -> 25 ;
26 [label="gini = 0.0\nsamples = 1\nvalue = [0, 1]"] ;
24 -> 26 ;
27 [label="gini = 0.0\nsamples = 1\nvalue = [1, 0]"] ;
7 -> 27 ;
28 [label="X[5] <= 149.035\ngini = 0.03\nsamples = 65\nvalue = [1, 64]"] ;
6 -> 28 ;
29 [label="gini = 0.0\nsamples = 53\nvalue = [0, 53]"] ;
28 -> 29 ;
30 [label="X[5] <= 152.506\ngini = 0.153\nsamples = 12\nvalue = [1, 11]"] ;
28 -> 30 ;
31 [label="X[3] <= 0.5\ngini = 0.5\nsamples = 2\nvalue = [1, 1]"] ;
30 -> 31 ;
32 [label="gini = 0.0\nsamples = 1\nvalue = [0, 1]"] ;
31 -> 32 ;
33 [label="gini = 0.0\nsamples = 1\nvalue = [1, 0]"] ;
31 -> 33 ;
34 [label="gini = 0.0\nsamples = 10\nvalue = [0, 10]"] ;
30 -> 34 ;
35 [label="X[5] <= 20.8\ngini = 0.499\nsamples = 69\nvalue = [36, 33]"] ;
1 -> 35 ;
36 [label="X[2] <= 24.5\ngini = 0.49\nsamples = 56\nvalue = [24, 32]"] ;
35 -> 36 ;
37 [label="X[5] <= 7.815\ngini = 0.438\nsamples = 34\nvalue = [11, 23]"] ;
36 -> 37 ;
38 [label="X[5] <= 6.987\ngini = 0.165\nsamples = 11\nvalue = [1, 10]"] ;
37 -> 38 ;
39 [label="gini = 0.0\nsamples = 1\nvalue = [1, 0]"] ;
38 -> 39 ;
40 [label="gini = 0.0\nsamples = 10\nvalue = [0, 10]"] ;
38 -> 40 ;
41 [label="X[4] <= 1.5\ngini = 0.491\nsamples = 23\nvalue = [10, 13]"] ;
37 -> 41 ;
42 [label="X[2] <= 7.0\ngini = 0.499\nsamples = 19\nvalue = [10, 9]"] ;
41 -> 42 ;
43 [label="X[5] <= 11.375\ngini = 0.32\nsamples = 5\nvalue = [1, 4]"] ;
42 -> 43 ;
44 [label="gini = 0.0\nsamples = 1\nvalue = [1, 0]"] ;
43 -> 44 ;
45 [label="gini = 0.0\nsamples = 4\nvalue = [0, 4]"] ;
43 -> 45 ;
46 [label="X[5] <= 9.588\ngini = 0.459\nsamples = 14\nvalue = [9, 5]"] ;
42 -> 46 ;
47 [label="X[2] <= 21.0\ngini = 0.5\nsamples = 6\nvalue = [3, 3]"] ;
46 -> 47 ;
48 [label="X[2] <= 14.5\ngini = 0.375\nsamples = 4\nvalue = [1, 3]"] ;
47 -> 48 ;
49 [label="gini = 0.0\nsamples = 1\nvalue = [1, 0]"] ;
48 -> 49 ;
50 [label="gini = 0.0\nsamples = 3\nvalue = [0, 3]"] ;
48 -> 50 ;
51 [label="gini = 0.0\nsamples = 2\nvalue = [2, 0]"] ;
47 -> 51 ;
52 [label="X[2] <= 22.5\ngini = 0.375\nsamples = 8\nvalue = [6, 2]"] ;
46 -> 52 ;
53 [label="X[2] <= 14.25\ngini = 0.245\nsamples = 7\nvalue = [6, 1]"] ;
52 -> 53 ;
54 [label="X[4] <= 0.5\ngini = 0.5\nsamples = 2\nvalue = [1, 1]"] ;
53 -> 54 ;
55 [label="gini = 0.0\nsamples = 1\nvalue = [0, 1]"] ;
54 -> 55 ;
56 [label="gini = 0.0\nsamples = 1\nvalue = [1, 0]"] ;
54 -> 56 ;
57 [label="gini = 0.0\nsamples = 5\nvalue = [5, 0]"] ;
53 -> 57 ;
58 [label="gini = 0.0\nsamples = 1\nvalue = [0, 1]"] ;
52 -> 58 ;
59 [label="gini = 0.0\nsamples = 4\nvalue = [0, 4]"] ;
41 -> 59 ;
60 [label="X[5] <= 7.815\ngini = 0.483\nsamples = 22\nvalue = [13, 9]"] ;
36 -> 60 ;
61 [label="gini = 0.0\nsamples = 3\nvalue = [3, 0]"] ;
60 -> 61 ;
62 [label="X[3] <= 0.5\ngini = 0.499\nsamples = 19\nvalue = [10, 9]"] ;
60 -> 62 ;
63 [label="X[2] <= 27.5\ngini = 0.486\nsamples = 12\nvalue = [5, 7]"] ;
62 -> 63 ;
64 [label="gini = 0.0\nsamples = 3\nvalue = [0, 3]"] ;
63 -> 64 ;
65 [label="X[5] <= 8.673\ngini = 0.494\nsamples = 9\nvalue = [5, 4]"] ;
63 -> 65 ;
66 [label="gini = 0.0\nsamples = 3\nvalue = [3, 0]"] ;
65 -> 66 ;
67 [label="X[2] <= 34.0\ngini = 0.444\nsamples = 6\nvalue = [2, 4]"] ;
65 -> 67 ;
68 [label="gini = 0.0\nsamples = 3\nvalue = [0, 3]"] ;
67 -> 68 ;
69 [label="X[2] <= 52.0\ngini = 0.444\nsamples = 3\nvalue = [2, 1]"] ;
67 -> 69 ;
70 [label="gini = 0.0\nsamples = 2\nvalue = [2, 0]"] ;
69 -> 70 ;
71 [label="gini = 0.0\nsamples = 1\nvalue = [0, 1]"] ;
69 -> 71 ;
72 [label="X[5] <= 16.75\ngini = 0.408\nsamples = 7\nvalue = [5, 2]"] ;
62 -> 72 ;
73 [label="gini = 0.0\nsamples = 4\nvalue = [4, 0]"] ;
72 -> 73 ;
74 [label="X[5] <= 17.7\ngini = 0.444\nsamples = 3\nvalue = [1, 2]"] ;
72 -> 74 ;
75 [label="gini = 0.0\nsamples = 1\nvalue = [0, 1]"] ;
74 -> 75 ;
76 [label="X[5] <= 19.262\ngini = 0.5\nsamples = 2\nvalue = [1, 1]"] ;
74 -> 76 ;
77 [label="gini = 0.0\nsamples = 1\nvalue = [1, 0]"] ;
76 -> 77 ;
78 [label="gini = 0.0\nsamples = 1\nvalue = [0, 1]"] ;
76 -> 78 ;
79 [label="X[4] <= 4.5\ngini = 0.142\nsamples = 13\nvalue = [12, 1]"] ;
35 -> 79 ;
80 [label="gini = 0.0\nsamples = 9\nvalue = [9, 0]"] ;
79 -> 80 ;
81 [label="X[2] <= 38.5\ngini = 0.375\nsamples = 4\nvalue = [3, 1]"] ;
79 -> 81 ;
82 [label="gini = 0.0\nsamples = 1\nvalue = [0, 1]"] ;
81 -> 82 ;
83 [label="gini = 0.0\nsamples = 3\nvalue = [3, 0]"] ;
81 -> 83 ;
84 [label="X[2] <= 3.5\ngini = 0.299\nsamples = 300\nvalue = [245, 55]"] ;
0 -> 84 [labeldistance=2.5, labelangle=-45, headlabel="False"] ;
85 [label="X[3] <= 4.5\ngini = 0.165\nsamples = 11\nvalue = [1, 10]"] ;
84 -> 85 ;
86 [label="gini = 0.0\nsamples = 10\nvalue = [0, 10]"] ;
85 -> 86 ;
87 [label="gini = 0.0\nsamples = 1\nvalue = [1, 0]"] ;
85 -> 87 ;
88 [label="X[0] <= 1.5\ngini = 0.263\nsamples = 289\nvalue = [244, 45]"] ;
84 -> 88 ;
89 [label="X[5] <= 387.665\ngini = 0.455\nsamples = 60\nvalue = [39, 21]"] ;
88 -> 89 ;
90 [label="X[2] <= 61.0\ngini = 0.441\nsamples = 58\nvalue = [39, 19]"] ;
89 -> 90 ;
91 [label="X[5] <= 15.644\ngini = 0.46\nsamples = 53\nvalue = [34, 19]"] ;
90 -> 91 ;
92 [label="gini = 0.0\nsamples = 4\nvalue = [4, 0]"] ;
91 -> 92 ;
93 [label="X[5] <= 27.135\ngini = 0.475\nsamples = 49\nvalue = [30, 19]"] ;
91 -> 93 ;
94 [label="X[2] <= 53.5\ngini = 0.278\nsamples = 6\nvalue = [1, 5]"] ;
93 -> 94 ;
95 [label="gini = 0.0\nsamples = 5\nvalue = [0, 5]"] ;
94 -> 95 ;
96 [label="gini = 0.0\nsamples = 1\nvalue = [1, 0]"] ;
94 -> 96 ;
97 [label="X[3] <= 0.5\ngini = 0.439\nsamples = 43\nvalue = [29, 14]"] ;
93 -> 97 ;
98 [label="X[2] <= 12.5\ngini = 0.33\nsamples = 24\nvalue = [19, 5]"] ;
97 -> 98 ;
99 [label="gini = 0.0\nsamples = 1\nvalue = [0, 1]"] ;
98 -> 99 ;
100 [label="X[5] <= 70.323\ngini = 0.287\nsamples = 23\nvalue = [19, 4]"] ;
98 -> 100 ;
101 [label="X[2] <= 28.5\ngini = 0.36\nsamples = 17\nvalue = [13, 4]"] ;
100 -> 101 ;
102 [label="X[4] <= 0.5\ngini = 0.444\nsamples = 3\nvalue = [1, 2]"] ;
101 -> 102 ;
103 [label="X[5] <= 41.3\ngini = 0.5\nsamples = 2\nvalue = [1, 1]"] ;
102 -> 103 ;
104 [label="gini = 0.0\nsamples = 1\nvalue = [0, 1]"] ;
103 -> 104 ;
105 [label="gini = 0.0\nsamples = 1\nvalue = [1, 0]"] ;
103 -> 105 ;
106 [label="gini = 0.0\nsamples = 1\nvalue = [0, 1]"] ;
102 -> 106 ;
107 [label="X[5] <= 32.26\ngini = 0.245\nsamples = 14\nvalue = [12, 2]"] ;
101 -> 107 ;
108 [label="X[5] <= 30.25\ngini = 0.375\nsamples = 8\nvalue = [6, 2]"] ;
107 -> 108 ;
109 [label="gini = 0.0\nsamples = 5\nvalue = [5, 0]"] ;
108 -> 109 ;
110 [label="X[2] <= 53.5\ngini = 0.444\nsamples = 3\nvalue = [1, 2]"] ;
108 -> 110 ;
111 [label="gini = 0.0\nsamples = 2\nvalue = [0, 2]"] ;
110 -> 111 ;
112 [label="gini = 0.0\nsamples = 1\nvalue = [1, 0]"] ;
110 -> 112 ;
113 [label="gini = 0.0\nsamples = 6\nvalue = [6, 0]"] ;
107 -> 113 ;
114 [label="gini = 0.0\nsamples = 6\nvalue = [6, 0]"] ;
100 -> 114 ;
115 [label="X[5] <= 115.442\ngini = 0.499\nsamples = 19\nvalue = [10, 9]"] ;
97 -> 115 ;
116 [label="X[5] <= 89.552\ngini = 0.484\nsamples = 17\nvalue = [10, 7]"] ;
115 -> 116 ;
117 [label="X[6] <= 1.0\ngini = 0.497\nsamples = 13\nvalue = [6, 7]"] ;
116 -> 117 ;
118 [label="X[2] <= 38.0\ngini = 0.278\nsamples = 6\nvalue = [1, 5]"] ;
117 -> 118 ;
119 [label="X[5] <= 68.806\ngini = 0.5\nsamples = 2\nvalue = [1, 1]"] ;
118 -> 119 ;
120 [label="gini = 0.0\nsamples = 1\nvalue = [0, 1]"] ;
119 -> 120 ;
121 [label="gini = 0.0\nsamples = 1\nvalue = [1, 0]"] ;
119 -> 121 ;
122 [label="gini = 0.0\nsamples = 4\nvalue = [0, 4]"] ;
118 -> 122 ;
123 [label="X[5] <= 52.827\ngini = 0.408\nsamples = 7\nvalue = [5, 2]"] ;
117 -> 123 ;
124 [label="X[5] <= 52.277\ngini = 0.5\nsamples = 4\nvalue = [2, 2]"] ;
123 -> 124 ;
125 [label="gini = 0.0\nsamples = 2\nvalue = [2, 0]"] ;
124 -> 125 ;
126 [label="gini = 0.0\nsamples = 2\nvalue = [0, 2]"] ;
124 -> 126 ;
127 [label="gini = 0.0\nsamples = 3\nvalue = [3, 0]"] ;
123 -> 127 ;
128 [label="gini = 0.0\nsamples = 4\nvalue = [4, 0]"] ;
116 -> 128 ;
129 [label="gini = 0.0\nsamples = 2\nvalue = [0, 2]"] ;
115 -> 129 ;
130 [label="gini = 0.0\nsamples = 5\nvalue = [5, 0]"] ;
90 -> 130 ;
131 [label="gini = 0.0\nsamples = 2\nvalue = [0, 2]"] ;
89 -> 131 ;
132 [label="X[2] <= 10.0\ngini = 0.188\nsamples = 229\nvalue = [205, 24]"] ;
88 -> 132 ;
133 [label="X[3] <= 2.0\ngini = 0.444\nsamples = 9\nvalue = [6, 3]"] ;
132 -> 133 ;
134 [label="gini = 0.0\nsamples = 3\nvalue = [0, 3]"] ;
133 -> 134 ;
135 [label="gini = 0.0\nsamples = 6\nvalue = [6, 0]"] ;
133 -> 135 ;
136 [label="X[6] <= 0.5\ngini = 0.173\nsamples = 220\nvalue = [199, 21]"] ;
132 -> 136 ;
137 [label="X[5] <= 15.394\ngini = 0.36\nsamples = 17\nvalue = [13, 4]"] ;
136 -> 137 ;
138 [label="X[2] <= 21.0\ngini = 0.245\nsamples = 14\nvalue = [12, 2]"] ;
137 -> 138 ;
139 [label="X[4] <= 0.5\ngini = 0.5\nsamples = 2\nvalue = [1, 1]"] ;
138 -> 139 ;
140 [label="gini = 0.0\nsamples = 1\nvalue = [0, 1]"] ;
139 -> 140 ;
141 [label="gini = 0.0\nsamples = 1\nvalue = [1, 0]"] ;
139 -> 141 ;
142 [label="X[2] <= 28.75\ngini = 0.153\nsamples = 12\nvalue = [11, 1]"] ;
138 -> 142 ;
143 [label="gini = 0.0\nsamples = 7\nvalue = [7, 0]"] ;
142 -> 143 ;
144 [label="X[2] <= 29.5\ngini = 0.32\nsamples = 5\nvalue = [4, 1]"] ;
142 -> 144 ;
145 [label="gini = 0.0\nsamples = 1\nvalue = [0, 1]"] ;
144 -> 145 ;
146 [label="gini = 0.0\nsamples = 4\nvalue = [4, 0]"] ;
144 -> 146 ;
147 [label="X[2] <= 15.5\ngini = 0.444\nsamples = 3\nvalue = [1, 2]"] ;
137 -> 147 ;
148 [label="gini = 0.0\nsamples = 1\nvalue = [1, 0]"] ;
147 -> 148 ;
149 [label="gini = 0.0\nsamples = 2\nvalue = [0, 2]"] ;
147 -> 149 ;
150 [label="X[5] <= 11.0\ngini = 0.153\nsamples = 203\nvalue = [186, 17]"] ;
136 -> 150 ;
151 [label="X[5] <= 7.785\ngini = 0.204\nsamples = 130\nvalue = [115, 15]"] ;
150 -> 151 ;
152 [label="X[6] <= 1.5\ngini = 0.093\nsamples = 41\nvalue = [39, 2]"] ;
151 -> 152 ;
153 [label="X[5] <= 7.746\ngini = 0.245\nsamples = 7\nvalue = [6, 1]"] ;
152 -> 153 ;
154 [label="gini = 0.0\nsamples = 3\nvalue = [3, 0]"] ;
153 -> 154 ;
155 [label="X[2] <= 30.0\ngini = 0.375\nsamples = 4\nvalue = [3, 1]"] ;
153 -> 155 ;
156 [label="gini = 0.0\nsamples = 1\nvalue = [0, 1]"] ;
155 -> 156 ;
157 [label="gini = 0.0\nsamples = 3\nvalue = [3, 0]"] ;
155 -> 157 ;
158 [label="X[5] <= 7.196\ngini = 0.057\nsamples = 34\nvalue = [33, 1]"] ;
152 -> 158 ;
159 [label="X[5] <= 7.133\ngini = 0.124\nsamples = 15\nvalue = [14, 1]"] ;
158 -> 159 ;
160 [label="gini = 0.0\nsamples = 14\nvalue = [14, 0]"] ;
159 -> 160 ;
161 [label="gini = 0.0\nsamples = 1\nvalue = [0, 1]"] ;
159 -> 161 ;
162 [label="gini = 0.0\nsamples = 19\nvalue = [19, 0]"] ;
158 -> 162 ;
163 [label="X[5] <= 7.798\ngini = 0.249\nsamples = 89\nvalue = [76, 13]"] ;
151 -> 163 ;
164 [label="X[2] <= 19.5\ngini = 0.48\nsamples = 5\nvalue = [3, 2]"] ;
163 -> 164 ;
165 [label="gini = 0.0\nsamples = 1\nvalue = [1, 0]"] ;
164 -> 165 ;
166 [label="X[2] <= 21.5\ngini = 0.5\nsamples = 4\nvalue = [2, 2]"] ;
164 -> 166 ;
167 [label="gini = 0.0\nsamples = 1\nvalue = [0, 1]"] ;
166 -> 167 ;
168 [label="X[2] <= 24.5\ngini = 0.444\nsamples = 3\nvalue = [2, 1]"] ;
166 -> 168 ;
169 [label="gini = 0.0\nsamples = 1\nvalue = [1, 0]"] ;
168 -> 169 ;
170 [label="X[2] <= 27.5\ngini = 0.5\nsamples = 2\nvalue = [1, 1]"] ;
168 -> 170 ;
171 [label="gini = 0.0\nsamples = 1\nvalue = [0, 1]"] ;
170 -> 171 ;
172 [label="gini = 0.0\nsamples = 1\nvalue = [1, 0]"] ;
170 -> 172 ;
173 [label="X[2] <= 28.5\ngini = 0.228\nsamples = 84\nvalue = [73, 11]"] ;
163 -> 173 ;
174 [label="X[2] <= 20.5\ngini = 0.147\nsamples = 50\nvalue = [46, 4]"] ;
173 -> 174 ;
175 [label="X[5] <= 8.104\ngini = 0.32\nsamples = 20\nvalue = [16, 4]"] ;
174 -> 175 ;
176 [label="X[5] <= 7.91\ngini = 0.444\nsamples = 9\nvalue = [6, 3]"] ;
175 -> 176 ;
177 [label="gini = 0.0\nsamples = 4\nvalue = [4, 0]"] ;
176 -> 177 ;
178 [label="X[2] <= 19.5\ngini = 0.48\nsamples = 5\nvalue = [2, 3]"] ;
176 -> 178 ;
179 [label="gini = 0.0\nsamples = 2\nvalue = [0, 2]"] ;
178 -> 179 ;
180 [label="X[3] <= 0.5\ngini = 0.444\nsamples = 3\nvalue = [2, 1]"] ;
178 -> 180 ;
181 [label="gini = 0.0\nsamples = 2\nvalue = [2, 0]"] ;
180 -> 181 ;
182 [label="gini = 0.0\nsamples = 1\nvalue = [0, 1]"] ;
180 -> 182 ;
183 [label="X[0] <= 2.5\ngini = 0.165\nsamples = 11\nvalue = [10, 1]"] ;
175 -> 183 ;
184 [label="X[2] <= 17.5\ngini = 0.5\nsamples = 2\nvalue = [1, 1]"] ;
183 -> 184 ;
185 [label="gini = 0.0\nsamples = 1\nvalue = [1, 0]"] ;
184 -> 185 ;
186 [label="gini = 0.0\nsamples = 1\nvalue = [0, 1]"] ;
184 -> 186 ;
187 [label="gini = 0.0\nsamples = 9\nvalue = [9, 0]"] ;
183 -> 187 ;
188 [label="gini = 0.0\nsamples = 30\nvalue = [30, 0]"] ;
174 -> 188 ;
189 [label="X[5] <= 7.988\ngini = 0.327\nsamples = 34\nvalue = [27, 7]"] ;
173 -> 189 ;
190 [label="X[2] <= 38.0\ngini = 0.48\nsamples = 10\nvalue = [6, 4]"] ;
189 -> 190 ;
191 [label="X[5] <= 7.865\ngini = 0.408\nsamples = 7\nvalue = [5, 2]"] ;
190 -> 191 ;
192 [label="gini = 0.0\nsamples = 1\nvalue = [0, 1]"] ;
191 -> 192 ;
193 [label="X[2] <= 31.5\ngini = 0.278\nsamples = 6\nvalue = [5, 1]"] ;
191 -> 193 ;
194 [label="X[5] <= 7.9\ngini = 0.5\nsamples = 2\nvalue = [1, 1]"] ;
193 -> 194 ;
195 [label="gini = 0.0\nsamples = 1\nvalue = [1, 0]"] ;
194 -> 195 ;
196 [label="gini = 0.0\nsamples = 1\nvalue = [0, 1]"] ;
194 -> 196 ;
197 [label="gini = 0.0\nsamples = 4\nvalue = [4, 0]"] ;
193 -> 197 ;
198 [label="X[2] <= 46.0\ngini = 0.444\nsamples = 3\nvalue = [1, 2]"] ;
190 -> 198 ;
199 [label="gini = 0.0\nsamples = 2\nvalue = [0, 2]"] ;
198 -> 199 ;
200 [label="gini = 0.0\nsamples = 1\nvalue = [1, 0]"] ;
198 -> 200 ;
201 [label="X[2] <= 32.5\ngini = 0.219\nsamples = 24\nvalue = [21, 3]"] ;
189 -> 201 ;
202 [label="X[0] <= 2.5\ngini = 0.397\nsamples = 11\nvalue = [8, 3]"] ;
201 -> 202 ;
203 [label="gini = 0.0\nsamples = 3\nvalue = [3, 0]"] ;
202 -> 203 ;
204 [label="X[5] <= 9.492\ngini = 0.469\nsamples = 8\nvalue = [5, 3]"] ;
202 -> 204 ;
205 [label="X[2] <= 31.25\ngini = 0.278\nsamples = 6\nvalue = [5, 1]"] ;
204 -> 205 ;
206 [label="gini = 0.0\nsamples = 4\nvalue = [4, 0]"] ;
205 -> 206 ;
207 [label="X[5] <= 8.206\ngini = 0.5\nsamples = 2\nvalue = [1, 1]"] ;
205 -> 207 ;
208 [label="gini = 0.0\nsamples = 1\nvalue = [0, 1]"] ;
207 -> 208 ;
209 [label="gini = 0.0\nsamples = 1\nvalue = [1, 0]"] ;
207 -> 209 ;
210 [label="gini = 0.0\nsamples = 2\nvalue = [0, 2]"] ;
204 -> 210 ;
211 [label="gini = 0.0\nsamples = 13\nvalue = [13, 0]"] ;
201 -> 211 ;
212 [label="X[5] <= 51.698\ngini = 0.053\nsamples = 73\nvalue = [71, 2]"] ;
150 -> 212 ;
213 [label="X[5] <= 13.25\ngini = 0.029\nsamples = 67\nvalue = [66, 1]"] ;
212 -> 213 ;
214 [label="X[2] <= 30.5\ngini = 0.111\nsamples = 17\nvalue = [16, 1]"] ;
213 -> 214 ;
215 [label="gini = 0.0\nsamples = 12\nvalue = [12, 0]"] ;
214 -> 215 ;
216 [label="X[2] <= 32.5\ngini = 0.32\nsamples = 5\nvalue = [4, 1]"] ;
214 -> 216 ;
217 [label="gini = 0.0\nsamples = 1\nvalue = [0, 1]"] ;
216 -> 217 ;
218 [label="gini = 0.0\nsamples = 4\nvalue = [4, 0]"] ;
216 -> 218 ;
219 [label="gini = 0.0\nsamples = 50\nvalue = [50, 0]"] ;
213 -> 219 ;
220 [label="X[0] <= 2.5\ngini = 0.278\nsamples = 6\nvalue = [5, 1]"] ;
212 -> 220 ;
221 [label="gini = 0.0\nsamples = 4\nvalue = [4, 0]"] ;
220 -> 221 ;
222 [label="X[2] <= 27.0\ngini = 0.5\nsamples = 2\nvalue = [1, 1]"] ;
220 -> 222 ;
223 [label="gini = 0.0\nsamples = 1\nvalue = [0, 1]"] ;
222 -> 223 ;
224 [label="gini = 0.0\nsamples = 1\nvalue = [1, 0]"] ;
222 -> 224 ;
}
